{"learner":{"attributes":{"scikit_learn":"{\"_estimator_type\": \"regressor\"}"},"feature_names":["matterport","source.type","year_built","baths_3qtr","baths_half","lot_sqft","sqft","baths","sub_type","garage","stories","beds","type","lead_attributes.show_contact_an_agent","is_foreclosure","is_new_listing","products.brand_name","state","coordinate.lon","coordinate.lat","state_code","basement","big_lot","big_yard","carport","central_air","central_heat","community_outdoor_space","community_security_features","community_swimming_pool","corner_lot","cul_de_sac","dining_room","disability_features","dishwasher","energy_efficient","ensuite","family_room","farm","fenced_yard","fireplace","floor_plan","forced_air","front_porch","groundscare","hardwood_floors","high_ceiling","laundry_room","master_bedroom","modern_kitchen","new_roof","park","recreation_facilities","rental_property","shopping","single_story","swimming_pool","trails","updated_kitchen","view","views","washer_dryer","same","city_mean_price"],"feature_types":["int","int","float","int","int","float","float","int","int","int","int","int","int","i","i","int","int","int","float","float","int","int","int","int","int","int","int","int","int","int","int","int","int","int","int","int","int","int","int","int","int","int","int","int","int","int","int","int","int","int","int","int","int","int","int","int","int","int","int","int","int","int","i","float"],"gradient_booster":{"model":{"gbtree_model_param":{"num_parallel_tree":"1","num_trees":"300"},"iteration_indptr":[0,1,2,3,4,5,6,7,8,9,10,11,12,13,14,15,16,17,18,19,20,21,22,23,24,25,26,27,28,29,30,31,32,33,34,35,36,37,38,39,40,41,42,43,44,45,46,47,48,49,50,51,52,53,54,55,56,57,58,59,60,61,62,63,64,65,66,67,68,69,70,71,72,73,74,75,76,77,78,79,80,81,82,83,84,85,86,87,88,89,90,91,92,93,94,95,96,97,98,99,100,101,102,103,104,105,106,107,108,109,110,111,112,113,114,115,116,117,118,119,120,121,122,123,124,125,126,127,128,129,130,131,132,133,134,135,136,137,138,139,140,141,142,143,144,145,146,147,148,149,150,151,152,153,154,155,156,157,158,159,160,161,162,163,164,165,166,167,168,169,170,171,172,173,174,175,176,177,178,179,180,181,182,183,184,185,186,187,188,189,190,191,192,193,194,195,196,197,198,199,200,201,202,203,204,205,206,207,208,209,210,211,212,213,214,215,216,217,218,219,220,221,222,223,224,225,226,227,228,229,230,231,232,233,234,235,236,237,238,239,240,241,242,243,244,245,246,247,248,249,250,251,252,253,254,255,256,257,258,259,260,261,262,263,264,265,266,267,268,269,270,271,272,273,274,275,276,277,278,279,280,281,282,283,284,285,286,287,288,289,290,291,292,293,294,295,296,297,298,299,300],"tree_info":[0,0,0,0,0,0,0,0,0,0,0,0,0,0,0,0,0,0,0,0,0,0,0,0,0,0,0,0,0,0,0,0,0,0,0,0,0,0,0,0,0,0,0,0,0,0,0,0,0,0,0,0,0,0,0,0,0,0,0,0,0,0,0,0,0,0,0,0,0,0,0,0,0,0,0,0,0,0,0,0,0,0,0,0,0,0,0,0,0,0,0,0,0,0,0,0,0,0,0,0,0,0,0,0,0,0,0,0,0,0,0,0,0,0,0,0,0,0,0,0,0,0,0,0,0,0,0,0,0,0,0,0,0,0,0,0,0,0,0,0,0,0,0,0,0,0,0,0,0,0,0,0,0,0,0,0,0,0,0,0,0,0,0,0,0,0,0,0,0,0,0,0,0,0,0,0,0,0,0,0,0,0,0,0,0,0,0,0,0,0,0,0,0,0,0,0,0,0,0,0,0,0,0,0,0,0,0,0,0,0,0,0,0,0,0,0,0,0,0,0,0,0,0,0,0,0,0,0,0,0,0,0,0,0,0,0,0,0,0,0,0,0,0,0,0,0,0,0,0,0,0,0,0,0,0,0,0,0,0,0,0,0,0,0,0,0,0,0,0,0,0,0,0,0,0,0,0,0,0,0,0,0,0,0,0,0,0,0,0,0,0,0,0,0,0,0,0,0,0,0],"trees":[{"base_weights":[-7.367352E-3,-5.9081223E4,7.253194E5,-1.7627683E5,1.0867363E5,6.4700465E6,5.7422175E5,-2.1643162E5,-6.6657375E4,7.646588E4,6.979897E5,2.0159344E6,1.6889717E5,3.5987162E5,1.5681792E6,-2.949771E5,-1.858728E5,-1.2857973E5,7.9121685E3,2.174772E4,4.028774E5,3.186125E5,1.6550689E6,9.971752E4,6.816139E5,6.313185E5,2.4864718E6,-3.2378012E5,-2.3615378E5,-2.3508117E5,-1.595259E5,-1.760847E5,-5.540298E4,-7.7477445E4,7.223644E4,-4.824023E4,9.756253E4,1.2171318E6,3.5041275E5,1.6537039E5,5.849181E5,5.992677E5,1.2507902E6,4.3467234E4,4.7446E5,5.5259775E5,1.1078382E6,1.2532355E5,2.2044803E5,2.0501038E6,1.0493411E6,-4.4810156E4,-6.7506875E4,-5.548774E4,-4.048234E4,-5.4045176E4,-4.378856E4,-8.460884E3,-3.364014E4,-4.9660316E4,-2.885226E4,-1.443665E4,4.614741E3,-6.326284E4,-1.3753487E4,8.84626E3,5.30766E4,-2.120491E4,-2.3268623E2,4.7977484E4,1.31264375E4,1.7819467E5,3.5129716E5,6.5522434E4,1.757093E5,2.0001416E4,6.432707E4,-5.830284E4,1.5000312E5,1.4274678E5,3.1668422E5,-2.595926E4,1.6875096E4,1.301842E5,3.599371E4,-2.1225373E4,1.2095824E5,1.1767335E5,2.9583694E5,-1.5582835E4,3.7791355E4,4.4343856E5,7.359109E4],"categories":[],"categories_nodes":[],"categories_segments":[],"categories_sizes":[],"default_left":[0,0,0,0,0,0,0,0,0,0,0,0,0,0,0,0,0,0,0,0,0,0,0,0,0,0,0,0,0,0,0,0,0,0,0,0,0,0,0,0,0,0,0,0,0,0,0,0,0,0,0,0,0,0,0,0,0,0,0,0,0,0,0,0,0,0,0,0,0,0,0,0,0,0,0,0,0,0,0,0,0,0,0,0,0,0,0,0,0,0,0,0,0],"id":0,"left_children":[1,3,5,7,9,11,13,15,17,19,21,-1,-1,23,25,27,29,31,33,35,37,39,41,43,45,47,49,51,53,55,57,59,61,63,65,67,69,71,73,75,77,-1,79,81,83,85,87,89,-1,91,-1,-1,-1,-1,-1,-1,-1,-1,-1,-1,-1,-1,-1,-1,-1,-1,-1,-1,-1,-1,-1,-1,-1,-1,-1,-1,-1,-1,-1,-1,-1,-1,-1,-1,-1,-1,-1,-1,-1,-1,-1,-1,-1],"loss_changes":[2.2416273E14,9.511521E13,3.3828253E14,1.2521751E13,3.7717908E13,1.9454957E14,8.146178E13,4.947299E12,3.5334214E12,3.3712125E13,3.6871355E13,0E0,0E0,2.654945E13,5.693147E13,9.096145E11,1.9111178E12,1.4433213E12,1.9170301E12,8.590013E12,1.1150503E13,2.9639647E12,1.1977355E13,3.7104255E12,7.1963687E12,8.201804E12,3.0195952E13,4.5660032E11,2.1548656E11,2.3690478E11,9.914538E11,5.4562128E11,2.202643E11,2.9028837E11,1.06467203E12,2.2903697E12,3.515319E12,1.2496551E12,2.7948703E12,4.6832E11,4.1254535E12,0E0,3.157254E12,1.1095772E12,1.07807873E12,3.8804883E12,5.3026195E12,2.4751047E11,0E0,7.897287E12,0E0,0E0,0E0,0E0,0E0,0E0,0E0,0E0,0E0,0E0,0E0,0E0,0E0,0E0,0E0,0E0,0E0,0E0,0E0,0E0,0E0,0E0,0E0,0E0,0E0,0E0,0E0,0E0,0E0,0E0,0E0,0E0,0E0,0E0,0E0,0E0,0E0,0E0,0E0,0E0,0E0,0E0,0E0],"parents":[2147483647,0,0,1,1,2,2,3,3,4,4,5,5,6,6,7,7,8,8,9,9,10,10,13,13,14,14,15,15,16,16,17,17,18,18,19,19,20,20,21,21,22,22,23,23,24,24,25,25,26,26,27,27,28,28,29,29,30,30,31,31,32,32,33,33,34,34,35,35,36,36,37,37,38,38,39,39,40,40,42,42,43,43,44,44,45,45,46,46,47,47,49,49],"right_children":[2,4,6,8,10,12,14,16,18,20,22,-1,-1,24,26,28,30,32,34,36,38,40,42,44,46,48,50,52,54,56,58,60,62,64,66,68,70,72,74,76,78,-1,80,82,84,86,88,90,-1,92,-1,-1,-1,-1,-1,-1,-1,-1,-1,-1,-1,-1,-1,-1,-1,-1,-1,-1,-1,-1,-1,-1,-1,-1,-1,-1,-1,-1,-1,-1,-1,-1,-1,-1,-1,-1,-1,-1,-1,-1,-1,-1,-1],"split_conditions":[1.9566745E0,3.93E5,5E0,2.9156908E-1,6.945915E-1,8.604651E-1,4.555035E0,1.9E5,2.94E5,9.4145197E-1,-1.1627907E-1,2.0159344E6,1.6889717E5,4.52E5,5.236924E5,1E0,-4.4847775E-1,3.0232558E-1,1E0,-6.088993E-2,5E0,-3.1381732E-1,3.9534885E-1,1E0,6.763296E-1,3.112109E-1,3.5430473E1,1E0,-3.0232558E-1,-8.52459E-1,1E0,1.85E5,4E0,3E0,3.32E5,1E0,5E0,8.8372093E-1,8E0,1E0,1E0,5.992677E5,-5.8079624E-1,3E0,3E0,9E0,-5.2611446E-1,-4.2248836E-1,2.2044803E5,1E0,1.0493411E6,-4.4810156E4,-6.7506875E4,-5.548774E4,-4.048234E4,-5.4045176E4,-4.378856E4,-8.460884E3,-3.364014E4,-4.9660316E4,-2.885226E4,-1.443665E4,4.614741E3,-6.326284E4,-1.3753487E4,8.84626E3,5.30766E4,-2.120491E4,-2.3268623E2,4.7977484E4,1.31264375E4,1.7819467E5,3.5129716E5,6.5522434E4,1.757093E5,2.0001416E4,6.432707E4,-5.830284E4,1.5000312E5,1.4274678E5,3.1668422E5,-2.595926E4,1.6875096E4,1.301842E5,3.599371E4,-2.1225373E4,1.2095824E5,1.1767335E5,2.9583694E5,-1.5582835E4,3.7791355E4,4.4343856E5,7.359109E4],"split_indices":[6,63,12,6,18,2,6,63,63,6,2,0,0,63,63,34,6,2,40,6,12,6,2,2,18,5,5,1,2,6,1,63,7,17,63,9,17,2,9,25,7,0,6,7,17,12,5,5,0,0,0,0,0,0,0,0,0,0,0,0,0,0,0,0,0,0,0,0,0,0,0,0,0,0,0,0,0,0,0,0,0,0,0,0,0,0,0,0,0,0,0,0,0],"split_type":[0,0,0,0,0,0,0,0,0,0,0,0,0,0,0,0,0,0,0,0,0,0,0,0,0,0,0,0,0,0,0,0,0,0,0,0,0,0,0,0,0,0,0,0,0,0,0,0,0,0,0,0,0,0,0,0,0,0,0,0,0,0,0,0,0,0,0,0,0,0,0,0,0,0,0,0,0,0,0,0,0,0,0,0,0,0,0,0,0,0,0,0,0],"sum_hessian":[5.229E3,4.836E3,3.93E2,2.847E3,1.989E3,9E0,3.84E2,2.083E3,7.64E2,1.887E3,1.02E2,5E0,4E0,3.17E2,6.7E1,5.81E2,1.502E3,4.17E2,3.47E2,1.617E3,2.7E2,7.4E1,2.8E1,1.76E2,1.41E2,3.4E1,3.3E1,3.87E2,1.94E2,5.21E2,9.81E2,2.52E2,1.65E2,1.49E2,1.98E2,8.41E2,7.76E2,1.5E1,2.55E2,4.8E1,2.6E1,5E0,2.3E1,1.54E2,2.2E1,1.1E2,3.1E1,1.7E1,1.7E1,3E1,3E0,4.9E1,3.38E2,8.4E1,1.1E2,1.59E2,3.62E2,6.8E1,9.13E2,7.5E1,1.77E2,1.36E2,2.9E1,4E0,1.45E2,1.74E2,2.4E1,3.77E2,4.64E2,1.41E2,6.35E2,1.1E1,4E0,2.46E2,9E0,3.5E1,1.3E1,4E0,2.2E1,1E1,1.3E1,2.9E1,1.25E2,1.3E1,9E0,8E0,1.02E2,1.4E1,1.7E1,4E0,1.3E1,2.7E1,3E0],"tree_param":{"num_deleted":"0","num_feature":"64","num_nodes":"93","size_leaf_vector":"1"}},{"base_weights":[1.1964944E3,-4.979131E4,5.619426E5,-6.3391945E4,5.703794E5,4.2874955E6,4.4639044E5,-1.106863E5,6.172293E4,2.5723706E5,1.360562E6,1.3347697E5,1.6799456E6,2.8613884E5,1.2811468E6,1.4452291E4,-1.405428E5,2.3199539E5,2.0081371E4,6.1105844E4,4.0988525E5,4.9938975E5,1.0197752E6,2.1620205E5,9.0373644E5,1.0658335E6,8.9193994E5,-1.0782423E5,5.5678812E4,-1.4428825E5,1.7220539E5,1.3938111E5,4.071056E5,4.4879897E5,7.7273125E3,-4.8974383E4,1.1006527E5,1.5822112E5,7.0620394E5,1.1679281E5,2.5787142E5,4.9789086E4,3.3607347E5,6.691553E5,3.0662584E5,2.837154E5,1.6140829E6,-2.959327E4,5.337803E3,7.8396577E3,1.2311423E5,-3.685512E4,-2.3650768E4,-6.557867E3,4.573148E4,4.2105086E4,1.5234807E4,4.3140293E4,1.0081208E5,2.2555041E4,2.3659758E5,-1.2476131E4,1.0638644E4,2.8090574E3,3.0109576E4,1.6746377E4,7.35467E4,6.3296664E4,1.5780611E5,1.4926386E5,4.605636E3,4.4958223E4,9.9851586E4,1.8118383E5,1.01864805E5,2.029853E4,1.1122115E5,4.3440484E5,2.3962323E5],"categories":[],"categories_nodes":[],"categories_segments":[],"categories_sizes":[],"default_left":[0,0,0,0,0,0,0,0,0,0,0,0,0,0,0,0,0,0,0,0,0,0,0,0,0,0,0,0,0,0,0,0,0,0,0,0,0,0,0,0,0,0,0,0,0,0,0,0,0,0,0,0,0,0,0,0,0,0,0,0,0,0,0,0,0,0,0,0,0,0,0,0,0,0,0,0,0,0,0],"id":1,"left_children":[1,3,5,7,9,11,13,15,17,19,21,-1,-1,23,25,27,29,31,33,35,37,-1,39,41,43,45,-1,47,49,51,53,55,57,59,61,-1,63,65,67,-1,-1,69,71,73,-1,75,77,-1,-1,-1,-1,-1,-1,-1,-1,-1,-1,-1,-1,-1,-1,-1,-1,-1,-1,-1,-1,-1,-1,-1,-1,-1,-1,-1,-1,-1,-1,-1,-1],"loss_changes":[1.4956004E14,4.048062E13,1.857823E14,2.7776382E13,2.5136294E13,1.8792168E14,5.6352337E13,1.2727523E13,9.12779E12,2.2203848E12,8.6843735E12,0E0,0E0,1.5224441E13,4.178483E13,3.317964E12,3.2461564E12,4.0463363E12,5.483605E12,5.3628876E11,3.0203194E12,0E0,2.0667433E12,6.406576E12,4.2892693E12,2.7413786E13,0E0,9.002906E11,4.5157114E12,2.8077761E12,3.893855E11,7.34933E11,1.5057803E12,7.0210316E12,3.2163404E12,0E0,1.1449968E11,3.4376306E11,3.6359058E11,0E0,0E0,2.5178237E12,3.2836095E12,5.9817696E11,0E0,1.3333598E12,6.2168897E12,0E0,0E0,0E0,0E0,0E0,0E0,0E0,0E0,0E0,0E0,0E0,0E0,0E0,0E0,0E0,0E0,0E0,0E0,0E0,0E0,0E0,0E0,0E0,0E0,0E0,0E0,0E0,0E0,0E0,0E0,0E0,0E0],"parents":[2147483647,0,0,1,1,2,2,3,3,4,4,5,5,6,6,7,7,8,8,9,9,10,10,13,13,14,14,15,15,16,16,17,17,18,18,19,19,20,20,22,22,23,23,24,24,25,25,27,27,28,28,29,29,30,30,31,31,32,32,33,33,34,34,36,36,37,37,38,38,41,41,42,42,43,43,45,45,46,46],"right_children":[2,4,6,8,10,12,14,16,18,20,22,-1,-1,24,26,28,30,32,34,36,38,-1,40,42,44,46,-1,48,50,52,54,56,58,60,62,-1,64,66,68,-1,-1,70,72,74,-1,76,78,-1,-1,-1,-1,-1,-1,-1,-1,-1,-1,-1,-1,-1,-1,-1,-1,-1,-1,-1,-1,-1,-1,-1,-1,-1,-1,-1,-1,-1,-1,-1,-1],"split_conditions":[1.8337237E0,6.945915E-1,1E0,3.4777516E-1,-1.1627907E-1,9E0,4.555035E0,-1.0195509E0,-1.0177137E0,4.5745116E-1,3.9534885E-1,1.3347697E5,1.6799456E6,6.7776185E-1,3.5430473E1,8E0,6.785674E-1,1.0327868E0,1E0,1E0,-6.6861826E-1,4.9938975E5,-5.8079624E-1,4E0,5E0,1.5E1,8.9193994E5,-1.0253739E0,6.158683E0,2E0,-1.2388759E0,9.153807E-3,4E0,7.1545666E-1,3E0,-4.8974383E4,2E0,4E0,-2.2325583E0,1.1679281E5,2.5787142E5,1E0,1E0,2.2845433E0,3.0662584E5,3.112109E-1,1E0,-2.959327E4,5.337803E3,7.8396577E3,1.2311423E5,-3.685512E4,-2.3650768E4,-6.557867E3,4.573148E4,4.2105086E4,1.5234807E4,4.3140293E4,1.0081208E5,2.2555041E4,2.3659758E5,-1.2476131E4,1.0638644E4,2.8090574E3,3.0109576E4,1.6746377E4,7.35467E4,6.3296664E4,1.5780611E5,1.4926386E5,4.605636E3,4.4958223E4,9.9851586E4,1.8118383E5,1.01864805E5,2.029853E4,1.1122115E5,4.3440484E5,2.3962323E5],"split_indices":[6,18,8,6,2,17,6,18,18,19,2,0,0,18,5,12,18,6,8,7,6,0,6,7,7,17,0,18,5,7,6,19,16,6,7,0,7,16,2,0,0,1,28,6,0,5,27,0,0,0,0,0,0,0,0,0,0,0,0,0,0,0,0,0,0,0,0,0,0,0,0,0,0,0,0,0,0,0,0],"split_type":[0,0,0,0,0,0,0,0,0,0,0,0,0,0,0,0,0,0,0,0,0,0,0,0,0,0,0,0,0,0,0,0,0,0,0,0,0,0,0,0,0,0,0,0,0,0,0,0,0,0,0,0,0,0,0,0,0,0,0,0,0,0,0,0,0,0,0,0,0,0,0,0,0,0,0,0,0,0,0],"sum_hessian":[5.229E3,4.794E3,4.35E2,4.692E3,1.02E2,1.2E1,4.23E2,3.405E3,1.287E3,7.4E1,2.8E1,7E0,5E0,3.56E2,6.7E1,6.56E2,2.749E3,2.52E2,1.035E3,3.3E1,4.1E1,5E0,2.3E1,3.21E2,3.5E1,6.4E1,3E0,1.65E2,4.91E2,2.717E3,3.2E1,1.66E2,8.6E1,2.8E1,1.007E3,4E0,2.9E1,2.3E1,1.8E1,1E1,1.3E1,1.35E2,1.86E2,2.7E1,8E0,2.7E1,3.7E1,1.27E2,3.8E1,4.78E2,1.3E1,1.069E3,1.648E3,7E0,2.5E1,7.7E1,8.9E1,3E1,5.6E1,2E1,8E0,3.96E2,6.11E2,9E0,2E1,1.8E1,5E0,4E0,1.4E1,4E0,1.31E2,1.12E2,7.4E1,9E0,1.8E1,1.7E1,1E1,1.4E1,2.3E1],"tree_param":{"num_deleted":"0","num_feature":"64","num_nodes":"79","size_leaf_vector":"1"}},{"base_weights":[2.1259631E3,-3.947572E4,4.5964416E5,-1.2090672E5,7.766093E4,3.5694908E6,3.6321103E5,-1.5046323E5,-5.3287098E4,4.5551137E4,3.6431075E5,1.1011849E5,1.3999548E6,2.3139947E5,1.0498804E6,-2.0412506E5,-1.25572266E5,-8.612867E4,2.3931664E4,1.3094263E4,2.5854544E5,2.7773172E5,1.4823684E6,4.872685E4,4.560106E5,7.832575E5,2.951645E6,-2.3045886E5,-1.5320267E5,8.524246E3,-1.3237788E5,-9.7169516E4,2.1723105E4,-2.3734365E4,1.195397E5,-5.5347957E4,5.7340523E4,9.246548E5,2.183744E5,2.4335911E5,7.5299025E5,4.161582E5,1.8374252E5,1.1780601E4,3.2932744E5,3.5626944E5,7.668567E5,4.0719844E5,1.5338188E6,3.3800728E5,7.5814894E5,-2.8803764E4,-4.8371184E4,-3.581124E4,-2.3201215E4,-1.5993483E4,8.674922E3,-3.359478E4,-2.2043186E4,-2.4768502E4,-1.5210369E4,-5.0923887E3,1.3631815E4,-8.485874E3,1.6719246E4,6.4043364E3,3.638245E4,-1.9294215E4,-3.1027654E3,2.3415355E4,4.4303857E3,1.2421473E5,2.57234E5,6.2198324E4,2.0032639E4,3.3111105E4,6.9252375E4,7.4446414E4,2.1434195E5,-2.3010112E3,3.6839758E4,9.060004E4,2.4650568E4,5.5779707E4,1.153779E5,1.1863599E5,2.5211458E5,1.6464363E4,1.24964336E5,1.39256E5,3.5331594E5],"categories":[],"categories_nodes":[],"categories_segments":[],"categories_sizes":[],"default_left":[0,0,0,0,0,0,0,0,0,0,0,0,0,0,0,0,0,0,0,0,0,0,0,0,0,0,0,0,0,0,0,0,0,0,0,0,0,0,0,0,0,0,0,0,0,0,0,0,0,0,0,0,0,0,0,0,0,0,0,0,0,0,0,0,0,0,0,0,0,0,0,0,0,0,0,0,0,0,0,0,0,0,0,0,0,0,0,0,0,0,0],"id":2,"left_children":[1,3,5,7,9,11,13,15,17,19,21,-1,-1,23,25,27,29,31,33,35,37,39,41,43,45,47,49,51,53,55,57,59,61,63,65,67,69,71,73,75,77,-1,-1,79,81,83,85,87,89,-1,-1,-1,-1,-1,-1,-1,-1,-1,-1,-1,-1,-1,-1,-1,-1,-1,-1,-1,-1,-1,-1,-1,-1,-1,-1,-1,-1,-1,-1,-1,-1,-1,-1,-1,-1,-1,-1,-1,-1,-1,-1],"loss_changes":[9.956348E13,4.5746758E13,1.29456555E14,5.646024E12,1.8088192E13,1.30769725E14,3.8133706E13,2.6030144E12,2.1880806E12,1.2232853E13,1.8754772E13,0E0,0E0,1.4625597E13,3.216777E13,7.9878E11,1.2304138E12,7.225297E11,1.1786091E12,4.6576897E12,6.0595194E12,2.8388895E12,2.8106115E12,2.0488141E12,4.6874577E12,1.6593006E13,2.0624316E12,3.6711485E11,1.8598645E11,2.0701035E11,9.928274E11,2.9981724E11,1.2662723E11,3.506794E11,4.6362486E11,9.8791784E11,1.9607068E12,6.279345E11,2.3993935E12,1.3357527E12,1.0573358E12,0E0,0E0,7.087364E11,5.3034012E11,1.9386639E12,2.510639E12,2.9179935E12,2.6688944E12,0E0,0E0,0E0,0E0,0E0,0E0,0E0,0E0,0E0,0E0,0E0,0E0,0E0,0E0,0E0,0E0,0E0,0E0,0E0,0E0,0E0,0E0,0E0,0E0,0E0,0E0,0E0,0E0,0E0,0E0,0E0,0E0,0E0,0E0,0E0,0E0,0E0,0E0,0E0,0E0,0E0,0E0],"parents":[2147483647,0,0,1,1,2,2,3,3,4,4,5,5,6,6,7,7,8,8,9,9,10,10,13,13,14,14,15,15,16,16,17,17,18,18,19,19,20,20,21,21,22,22,23,23,24,24,25,25,26,26,27,27,28,28,29,29,30,30,31,31,32,32,33,33,34,34,35,35,36,36,37,37,38,38,39,39,40,40,43,43,44,44,45,45,46,46,47,47,48,48],"right_children":[2,4,6,8,10,12,14,16,18,20,22,-1,-1,24,26,28,30,32,34,36,38,40,42,44,46,48,50,52,54,56,58,60,62,64,66,68,70,72,74,76,78,-1,-1,80,82,84,86,88,90,-1,-1,-1,-1,-1,-1,-1,-1,-1,-1,-1,-1,-1,-1,-1,-1,-1,-1,-1,-1,-1,-1,-1,-1,-1,-1,-1,-1,-1,-1,-1,-1,-1,-1,-1,-1,-1,-1,-1,-1,-1,-1],"split_conditions":[1.8337237E0,3.978182E5,1E0,2E0,7.235E5,9E0,4.555035E0,1.9E5,6.2177986E-1,9.4145197E-1,1E0,1.1011849E5,1.3999548E6,4.52E5,8E0,1E0,1E0,1E0,1E0,-2.8688523E-1,1E0,2E0,3.9534885E-1,1E0,5E0,2.4E1,1E0,1E0,-1.0421546E-1,9.773557E-2,2E0,1E0,2.50998E-1,1.9562541E0,9.742389E-1,1E0,1.5E1,8.8372093E-1,2.4E1,-2.2131148E-1,-3.7209302E-1,4.161582E5,1.8374252E5,3.315E5,3E0,1E0,3.6960655E-1,3.112109E-1,-1.744186E0,3.3800728E5,7.5814894E5,-2.8803764E4,-4.8371184E4,-3.581124E4,-2.3201215E4,-1.5993483E4,8.674922E3,-3.359478E4,-2.2043186E4,-2.4768502E4,-1.5210369E4,-5.0923887E3,1.3631815E4,-8.485874E3,1.6719246E4,6.4043364E3,3.638245E4,-1.9294215E4,-3.1027654E3,2.3415355E4,4.4303857E3,1.2421473E5,2.57234E5,6.2198324E4,2.0032639E4,3.3111105E4,6.9252375E4,7.4446414E4,2.1434195E5,-2.3010112E3,3.6839758E4,9.060004E4,2.4650568E4,5.5779707E4,1.153779E5,1.1863599E5,2.5211458E5,1.6464363E4,1.24964336E5,1.39256E5,3.5331594E5],"split_indices":[6,63,8,9,63,17,6,63,6,6,60,0,0,63,7,34,1,2,61,6,8,9,2,2,7,17,0,1,6,18,7,34,5,5,6,9,17,2,17,6,2,0,0,63,17,36,18,5,2,0,0,0,0,0,0,0,0,0,0,0,0,0,0,0,0,0,0,0,0,0,0,0,0,0,0,0,0,0,0,0,0,0,0,0,0,0,0,0,0,0,0],"split_type":[0,0,0,0,0,0,0,0,0,0,0,0,0,0,0,0,0,0,0,0,0,0,0,0,0,0,0,0,0,0,0,0,0,0,0,0,0,0,0,0,0,0,0,0,0,0,0,0,0,0,0,0,0,0,0,0,0,0,0,0,0,0,0,0,0,0,0,0,0,0,0,0,0,0,0,0,0,0,0,0,0,0,0,0,0,0,0,0,0,0,0],"sum_hessian":[5.229E3,4.794E3,4.35E2,2.828E3,1.966E3,1.2E1,4.23E2,1.967E3,8.61E2,1.769E3,1.97E2,7E0,5E0,3.56E2,6.7E1,6.21E2,1.346E3,6.04E2,2.57E2,1.536E3,2.33E2,1.84E2,1.3E1,1.97E2,1.59E2,6E1,7E0,4.07E2,2.14E2,6.5E1,1.281E3,5.48E2,5.6E1,1.72E2,8.5E1,6.03E2,9.33E2,1.2E1,2.21E2,1.73E2,1.1E1,5E0,8E0,1.75E2,2.2E1,1.22E2,3.7E1,4.1E1,1.9E1,4E0,3E0,4.9E1,3.58E2,1.24E2,9E1,1.8E1,4.7E1,4.89E2,7.92E2,2.4E2,3.08E2,2.8E1,2.8E1,1.47E2,2.5E1,3.6E1,4.9E1,2.96E2,3.07E2,3.45E2,5.88E2,8E0,4E0,1.23E2,9.8E1,1E2,7.3E1,6E0,5E0,1.55E2,2E1,1.3E1,9E0,9.2E1,3E1,2.9E1,8E0,1.7E1,2.4E1,5E0,1.4E1],"tree_param":{"num_deleted":"0","num_feature":"64","num_nodes":"91","size_leaf_vector":"1"}},{"base_weights":[2.6974355E3,-2.1497932E4,5.287771E5,-3.842494E4,5.261778E5,3.2744078E5,2.7474365E6,-9.666686E4,3.897923E4,4.4923903E5,6.4442656E5,2.659167E5,1.543636E6,1.2287448E6,1.1666289E6,-1.2076613E5,-2.8173826E4,-9.735138E3,1.2654738E5,1.1685184E5,5.8554475E5,2.2806177E5,6.666787E5,3.690747E5,1.7456478E5,3.4679847E5,1.5107717E5,-1.6948036E5,-1.0213789E5,-6.585359E4,2.6656187E3,-6.9294586E4,1.1800802E4,9.976316E4,2.5733842E5,3.608811E5,2.8756753E3,5.118824E5,2.6124323E5,1.4051952E5,3.0121144E5,3.0842084E5,1.6681075E5,-4.469019E4,-3.0028217E4,-2.3304764E4,-1.2909975E4,-2.4118617E4,-1.0125706E4,-5.000804E3,8.542167E3,-1.8050117E4,3.0663348E4,7.1716016E4,3.3059457E2,4.9771633E4,1.3423492E4,2.1607655E5,4.429955E4,3.6320766E4,8.288633E4,9.995409E3,-5.0409375E4,8.817093E4,2.157272E5,7.632435E4,1.7810607E4,8.45024E4,4.0032684E4,6.84428E4,1.0566206E4],"categories":[],"categories_nodes":[],"categories_segments":[],"categories_sizes":[],"default_left":[0,0,0,0,0,0,0,0,0,0,0,0,0,0,0,0,0,0,0,0,0,0,0,0,0,0,0,0,0,0,0,0,0,0,0,0,0,0,0,0,0,0,0,0,0,0,0,0,0,0,0,0,0,0,0,0,0,0,0,0,0,0,0,0,0,0,0,0,0,0,0],"id":3,"left_children":[1,3,5,7,9,11,13,15,17,19,-1,21,23,25,-1,27,29,31,33,35,37,39,41,-1,-1,-1,-1,43,45,47,49,51,53,55,57,59,61,63,-1,65,67,69,-1,-1,-1,-1,-1,-1,-1,-1,-1,-1,-1,-1,-1,-1,-1,-1,-1,-1,-1,-1,-1,-1,-1,-1,-1,-1,-1,-1,-1],"loss_changes":[6.658242E13,4.6382056E13,1.0184063E14,2.1877395E13,2.9666006E13,1.5452491E13,8.187109E13,4.5671986E12,8.891216E12,6.5916025E12,0E0,2.9276305E12,4.134032E11,2.0384527E12,0E0,1.8411673E12,8.391563E11,1.7195937E12,2.584163E12,1.222757E12,4.8523484E12,1.1551627E12,7.6213964E11,0E0,0E0,0E0,0E0,5.56171E11,7.949349E11,2.6475364E11,4.4206653E11,1.6745923E12,3.465678E12,3.0010298E12,3.4775027E12,5.9143225E10,3.8481982E11,3.388985E12,0E0,1.0455708E12,1.1534042E12,4.238069E10,0E0,0E0,0E0,0E0,0E0,0E0,0E0,0E0,0E0,0E0,0E0,0E0,0E0,0E0,0E0,0E0,0E0,0E0,0E0,0E0,0E0,0E0,0E0,0E0,0E0,0E0,0E0,0E0,0E0],"parents":[2147483647,0,0,1,1,2,2,3,3,4,4,5,5,6,6,7,7,8,8,9,9,11,11,12,12,13,13,15,15,16,16,17,17,18,18,19,19,20,20,21,21,22,22,27,27,28,28,29,29,30,30,31,31,32,32,33,33,34,34,35,35,36,36,37,37,39,39,40,40,41,41],"right_children":[2,4,6,8,10,12,14,16,18,20,-1,22,24,26,-1,28,30,32,34,36,38,40,42,-1,-1,-1,-1,44,46,48,50,52,54,56,58,60,62,64,-1,66,68,70,-1,-1,-1,-1,-1,-1,-1,-1,-1,-1,-1,-1,-1,-1,-1,-1,-1,-1,-1,-1,-1,-1,-1,-1,-1,-1,-1,-1,-1],"split_conditions":[8.369667E5,5E0,1E0,3.32E5,4E0,5E0,2E0,3E0,3E0,3.315E5,6.4442656E5,2E0,1E0,6.951382E-1,1.1666289E6,1.8905744E5,1E0,8E0,3E0,-3.8185173E-1,7E0,2E0,3E0,3.690747E5,1.7456478E5,3.4679847E5,1.5107717E5,1.02E5,1E0,2E0,1.1236296E-2,1E0,1E0,5E0,1E0,1E0,5E0,6.1174446E-1,2.6124323E5,1.08E6,1E0,1E0,1.6681075E5,-4.469019E4,-3.0028217E4,-2.3304764E4,-1.2909975E4,-2.4118617E4,-1.0125706E4,-5.000804E3,8.542167E3,-1.8050117E4,3.0663348E4,7.1716016E4,3.3059457E2,4.9771633E4,1.3423492E4,2.1607655E5,4.429955E4,3.6320766E4,8.288633E4,9.995409E3,-5.0409375E4,8.817093E4,2.157272E5,7.632435E4,1.7810607E4,8.45024E4,4.0032684E4,6.84428E4,1.0566206E4],"split_indices":[63,7,60,63,10,7,9,7,7,63,0,9,1,18,0,63,40,12,9,18,7,7,7,0,0,0,0,63,40,8,18,60,7,20,8,4,4,18,0,63,34,4,0,0,0,0,0,0,0,0,0,0,0,0,0,0,0,0,0,0,0,0,0,0,0,0,0,0,0,0,0],"split_type":[0,0,0,0,0,0,0,0,0,0,0,0,0,0,0,0,0,0,0,0,0,0,0,0,0,0,0,0,0,0,0,0,0,0,0,0,0,0,0,0,0,0,0,0,0,0,0,0,0,0,0,0,0,0,0,0,0,0,0,0,0,0,0,0,0,0,0,0,0,0,0],"sum_hessian":[5.229E3,5E3,2.29E2,4.851E3,1.49E2,2.11E2,1.8E1,2.768E3,2.083E3,1.46E2,3E0,2.02E2,9E0,1.3E1,5E0,2.047E3,7.21E2,1.339E3,7.44E2,4.3E1,1.03E2,1.86E2,1.6E1,5E0,4E0,5E0,8E0,5.64E2,1.483E3,3.24E2,3.97E2,3.55E2,9.84E2,6.19E2,1.25E2,1.3E1,3E1,9.5E1,8E0,8.6E1,1E2,6E0,1E1,1.46E2,4.18E2,1.071E3,4.12E2,6.9E1,2.55E2,2.35E2,1.62E2,3.25E2,3E1,2.7E1,9.57E2,1.1E2,5.09E2,4E0,1.21E2,4E0,9E0,2.6E1,4E0,8.6E1,9E0,1.4E1,7.2E1,4.4E1,5.6E1,5E0,1E0],"tree_param":{"num_deleted":"0","num_feature":"64","num_nodes":"71","size_leaf_vector":"1"}},{"base_weights":[2.9662815E3,-2.5735277E4,3.1861078E5,-3.336575E4,3.221826E5,2.0759289E5,1.6680841E6,-5.616033E4,5.1516855E4,1.3020194E5,8.075745E5,1.3917183E5,4.9635284E5,5.970322E5,8.915772E5,1.204732E4,-7.264407E4,3.7720412E5,4.1686164E4,-2.2587184E4,2.5078833E5,2.8899872E5,6.145708E5,7.4474516E4,2.7780378E5,1.7560983E5,8.209152E5,2.806714E5,2.2565312E5,3.5233582E3,2.827167E5,-9.541265E4,-4.3267008E4,1.5874339E4,5.971349E5,1.2743934E5,1.912993E4,-5.506856E4,2.0291654E4,8.153914E4,4.5137738E5,6.0487312E4,1.3615873E5,5.205979E4,8.1715586E4,1.5163702E5,4.2183922E5,8.717644E4,9.410549E4,3.0756222E5,6.6569425E5,-4.8473312E4,3.546648E5,-1.3967464E4,6.2775405E3,2.0489738E5,8.5701215E2,2.1798875E3,-2.1217172E4,-1.48457E4,-2.8879927E3,2.8810791E4,-8.57164E3,8.8726E4,1.8150433E5,1.8317248E4,5.8973758E4,8.692632E4,3.0555542E3,-1.0266575E4,9.73405E3,3.9250593E3,5.2801957E4,1.0732299E5,4.5719316E4,5.180864E3,7.4169055E4,-1.2332222E4,3.966631E4,3.1281285E4,1.09933586E5,1.174352E4,5.434179E4,6.636156E4,1.5541528E5,1.9492125E3,-1.4225692E4,4.476859E4,9.835737E4],"categories":[],"categories_nodes":[],"categories_segments":[],"categories_sizes":[],"default_left":[0,0,0,0,0,0,0,0,0,0,0,0,0,0,0,0,0,0,0,0,0,0,0,0,0,0,0,0,0,0,0,0,0,0,0,0,0,0,0,0,0,0,0,0,0,0,0,0,0,0,0,0,0,0,0,0,0,0,0,0,0,0,0,0,0,0,0,0,0,0,0,0,0,0,0,0,0,0,0,0,0,0,0,0,0,0,0,0,0],"id":4,"left_children":[1,3,5,7,9,11,13,15,17,19,21,23,25,27,-1,29,31,33,35,37,39,-1,41,43,45,47,49,51,-1,53,55,57,59,61,63,65,67,-1,69,71,73,-1,-1,75,-1,77,79,81,-1,-1,83,85,87,-1,-1,-1,-1,-1,-1,-1,-1,-1,-1,-1,-1,-1,-1,-1,-1,-1,-1,-1,-1,-1,-1,-1,-1,-1,-1,-1,-1,-1,-1,-1,-1,-1,-1,-1,-1],"loss_changes":[4.738933E13,1.2740407E13,6.4973363E13,9.083206E12,9.492996E12,7.9128565E12,9.5943244E13,4.1608513E12,3.1667968E12,1.387486E12,2.6796506E12,2.9211802E12,7.8716244E12,3.884863E12,0E0,1.6624774E12,1.9891151E12,2.295079E12,1.8660658E12,3.7407464E11,1.3890754E12,0E0,2.9019236E11,1.663718E12,1.8259724E12,1.0022038E12,3.2048215E12,4.3121875E11,0E0,1.4330951E12,4.5393196E12,1.9051682E12,1.1618925E12,9.6513655E10,4.5502274E11,1.1795699E12,1.2194032E12,0E0,6.347649E10,2.6595774E11,2.3812846E11,0E0,0E0,1.7580465E12,0E0,5.7994104E11,1.5426645E12,1.5209649E11,0E0,0E0,9.693959E11,5.9690967E9,1.410568E11,0E0,0E0,0E0,0E0,0E0,0E0,0E0,0E0,0E0,0E0,0E0,0E0,0E0,0E0,0E0,0E0,0E0,0E0,0E0,0E0,0E0,0E0,0E0,0E0,0E0,0E0,0E0,0E0,0E0,0E0,0E0,0E0,0E0,0E0,0E0,0E0],"parents":[2147483647,0,0,1,1,2,2,3,3,4,4,5,5,6,6,7,7,8,8,9,9,10,10,11,11,12,12,13,13,15,15,16,16,17,17,18,18,19,19,20,20,22,22,23,23,24,24,25,25,26,26,27,27,29,29,30,30,31,31,32,32,33,33,34,34,35,35,36,36,38,38,39,39,40,40,43,43,45,45,46,46,47,47,50,50,51,51,52,52],"right_children":[2,4,6,8,10,12,14,16,18,20,22,24,26,28,-1,30,32,34,36,38,40,-1,42,44,46,48,50,52,-1,54,56,58,60,62,64,66,68,-1,70,72,74,-1,-1,76,-1,78,80,82,-1,-1,84,86,88,-1,-1,-1,-1,-1,-1,-1,-1,-1,-1,-1,-1,-1,-1,-1,-1,-1,-1,-1,-1,-1,-1,-1,-1,-1,-1,-1,-1,-1,-1,-1,-1,-1,-1,-1,-1],"split_conditions":[1.8337237E0,6.945915E-1,1E0,5.2810305E-1,-1.1627907E-1,4.0644026E0,1E0,-1.0188073E0,7E0,4.5745116E-1,3.9534885E-1,1E0,1.5E1,5E0,8.915772E5,6.158683E0,1E0,5.784543E-1,-1.0177137E0,1E0,-6.6861826E-1,2.8899872E5,-1.1157684E0,9.564038E0,1E0,1E0,1E0,4.1860464E-1,2.2565312E5,1E0,-5.116279E-1,1E0,1.8809099E-2,2E0,9.0697676E-1,1.4309133E0,1E0,-5.506856E4,6.9484615E-1,4E0,4.6668878E-1,6.0487312E4,1.3615873E5,6.7776185E-1,8.1715586E4,-1.0444939E0,2E0,1.3765801E0,9.410549E4,3.0756222E5,4E0,-6.9767445E-2,7.906977E-1,-1.3967464E4,6.2775405E3,2.0489738E5,8.5701215E2,2.1798875E3,-2.1217172E4,-1.48457E4,-2.8879927E3,2.8810791E4,-8.57164E3,8.8726E4,1.8150433E5,1.8317248E4,5.8973758E4,8.692632E4,3.0555542E3,-1.0266575E4,9.73405E3,3.9250593E3,5.2801957E4,1.0732299E5,4.5719316E4,5.180864E3,7.4169055E4,-1.2332222E4,3.966631E4,3.1281285E4,1.09933586E5,1.174352E4,5.434179E4,6.636156E4,1.5541528E5,1.9492125E3,-1.4225692E4,4.476859E4,9.835737E4],"split_indices":[6,18,60,6,2,6,36,18,12,19,2,28,17,7,0,5,34,6,18,7,6,0,5,5,21,31,1,2,0,9,2,1,18,10,2,6,1,0,18,16,19,0,0,18,0,19,10,5,0,0,16,2,2,0,0,0,0,0,0,0,0,0,0,0,0,0,0,0,0,0,0,0,0,0,0,0,0,0,0,0,0,0,0,0,0,0,0,0,0],"split_type":[0,0,0,0,0,0,0,0,0,0,0,0,0,0,0,0,0,0,0,0,0,0,0,0,0,0,0,0,0,0,0,0,0,0,0,0,0,0,0,0,0,0,0,0,0,0,0,0,0,0,0,0,0,0,0,0,0,0,0,0,0,0,0,0,0,0,0,0,0,0,0,0,0,0,0,0,0,0,0,0,0,0,0,0,0,0,0,0,0],"sum_hessian":[5.229E3,4.794E3,4.35E2,4.692E3,1.02E2,4.03E2,3.2E1,3.699E3,9.93E2,7.4E1,2.8E1,3.27E2,7.6E1,2.4E1,8E0,7.2E2,2.979E3,2.8E1,9.65E2,3.3E1,4.1E1,5E0,2.3E1,2.24E2,1.03E2,3.9E1,3.7E1,1.6E1,8E0,6.99E2,2.1E1,1.677E3,1.302E3,1.1E1,1.7E1,2E2,7.65E2,4E0,2.9E1,2.3E1,1.8E1,5E0,1.8E1,2.11E2,1.3E1,5.6E1,4.7E1,3.1E1,8E0,5E0,3.2E1,3E0,1.3E1,1.92E2,5.07E2,5E0,1.6E1,1.53E2,1.524E3,6.27E2,6.75E2,3E0,8E0,1.3E1,4E0,1.66E2,3.4E1,6E0,7.59E2,8E0,2.1E1,1.8E1,5E0,1.2E1,6E0,1.96E2,1.5E1,1E1,4.6E1,1.6E1,3.1E1,2.8E1,3E0,9E0,2.3E1,1E0,2E0,8E0,5E0],"tree_param":{"num_deleted":"0","num_feature":"64","num_nodes":"89","size_leaf_vector":"1"}},{"base_weights":[3.0472263E3,-1.9895334E4,2.808803E5,-3.783798E4,1.742322E5,1.6852411E5,1.1394284E6,-7.143377E4,1.163842E4,3.643225E4,2.7920703E5,1.4234367E5,8.4430794E5,5.1119344E5,7.3307456E5,-1.13469234E5,-5.5570066E4,-2.1056154E4,7.3066586E4,-1.8469908E4,8.912409E4,2.0376452E5,5.5680325E5,1.0277735E5,2.6076444E5,1.0733255E6,1.2137447E4,1.587148E5,7.6032725E5,-1.3513664E5,-8.004104E4,-9.498819E4,-4.138486E4,-2.622995E4,2.074006E5,4.6642456E5,6.0571773E4,-3.7868805E4,8.677202E4,1.832716E5,3.7426695E4,1.7092519E5,4.3781203E5,6.737921E5,2.4670892E5,5.327109E4,2.2992864E5,2.9995434E5,-3.0145295E4,2.5630183E5,1.2176798E5,3.208129E4,9.124379E4,2.4083225E5,1.1179096E5,-2.3440842E4,-3.172185E4,-2.0923287E4,-1.1719184E4,-2.700703E4,-1.7152537E4,-1.2765363E4,-3.9944133E3,-9.203193E3,2.6099412E3,1.707478E5,2.5712527E3,6.733969E4,1.5246362E5,1.1047872E4,8.139313E4,-5.257555E3,-3.894913E4,6.258011E3,3.607631E4,4.6247445E4,2.0940142E3,-1.1617497E4,1.4695859E4,2.888842E4,9.307769E4,3.7437312E4,1.08458305E5,9.005579E4,1.7679323E5,6.8564375E3,6.989881E4,3.0966264E4,5.4374727E3,2.3864254E4,8.661953E4,9.3923164E4,4.594416E4,1.2945025E4,-1.1683858E4,1.9548926E4,-1.5925862E3],"categories":[],"categories_nodes":[],"categories_segments":[],"categories_sizes":[],"default_left":[0,0,0,0,0,0,0,0,0,0,0,0,0,0,0,0,0,0,0,0,0,0,0,0,0,0,0,0,0,0,0,0,0,0,0,0,0,0,0,0,0,0,0,0,0,0,0,0,0,0,0,0,0,0,0,0,0,0,0,0,0,0,0,0,0,0,0,0,0,0,0,0,0,0,0,0,0,0,0,0,0,0,0,0,0,0,0,0,0,0,0,0,0,0,0,0,0],"id":5,"left_children":[1,3,5,7,9,11,13,15,17,19,21,23,25,27,-1,29,31,33,35,37,39,41,43,45,47,49,-1,51,53,55,57,59,61,63,65,67,69,71,73,75,77,79,81,83,85,87,89,91,93,-1,-1,95,-1,-1,-1,-1,-1,-1,-1,-1,-1,-1,-1,-1,-1,-1,-1,-1,-1,-1,-1,-1,-1,-1,-1,-1,-1,-1,-1,-1,-1,-1,-1,-1,-1,-1,-1,-1,-1,-1,-1,-1,-1,-1,-1,-1,-1],"loss_changes":[3.3342664E13,1.6837229E13,3.8296797E13,7.354399E12,5.906227E12,6.1429E12,7.1123065E13,1.7508136E12,3.5965169E12,5.1658156E11,4.7452153E12,1.5756317E12,2.267879E12,3.2162689E12,0E0,5.114052E11,1.066849E12,1.3871841E12,3.0288375E12,1.8294473E11,4.3605413E11,1.3393828E12,1.6113719E12,1.6118055E12,9.781038E11,1.8675034E11,0E0,6.2582175E11,1.2931993E12,1.6493157E11,1.4459837E11,1.7536228E11,6.762938E11,8.897035E11,3.2583026E12,4.7264642E11,1.09317666E12,1.311402E11,6.7066814E10,2.6281201E11,2.108803E11,1.2039016E12,4.7456505E11,1.2461518E12,3.1553343E11,4.9116643E11,1.5663057E12,7.8581386E11,3.3287221E10,0E0,0E0,3.4961015E10,0E0,0E0,0E0,0E0,0E0,0E0,0E0,0E0,0E0,0E0,0E0,0E0,0E0,0E0,0E0,0E0,0E0,0E0,0E0,0E0,0E0,0E0,0E0,0E0,0E0,0E0,0E0,0E0,0E0,0E0,0E0,0E0,0E0,0E0,0E0,0E0,0E0,0E0,0E0,0E0,0E0,0E0,0E0,0E0,0E0],"parents":[2147483647,0,0,1,1,2,2,3,3,4,4,5,5,6,6,7,7,8,8,9,9,10,10,11,11,12,12,13,13,15,15,16,16,17,17,18,18,19,19,20,20,21,21,22,22,23,23,24,24,25,25,27,27,28,28,29,29,30,30,31,31,32,32,33,33,34,34,35,35,36,36,37,37,38,38,39,39,40,40,41,41,42,42,43,43,44,44,45,45,46,46,47,47,48,48,51,51],"right_children":[2,4,6,8,10,12,14,16,18,20,22,24,26,28,-1,30,32,34,36,38,40,42,44,46,48,50,-1,52,54,56,58,60,62,64,66,68,70,72,74,76,78,80,82,84,86,88,90,92,94,-1,-1,96,-1,-1,-1,-1,-1,-1,-1,-1,-1,-1,-1,-1,-1,-1,-1,-1,-1,-1,-1,-1,-1,-1,-1,-1,-1,-1,-1,-1,-1,-1,-1,-1,-1,-1,-1,-1,-1,-1,-1,-1,-1,-1,-1,-1,-1],"split_conditions":[6.888753E5,4E0,1E0,3.32E5,3.32E5,5E0,1.1721312E0,1.9E5,1.6276346E-1,2.71E5,3.3419204E0,9.028103E-1,4.844262E0,4.1991857E-1,7.3307456E5,1E0,-4.1334894E-1,6.158683E0,1E0,4.014521E-1,-8.605232E-1,1E0,1E0,4.5745116E-1,1E0,1E0,1.2137447E4,1E0,1E0,1.5837485E-1,-1.0421546E-1,-8.641707E-1,1E0,2E0,6.665835E0,3E0,2.0504824E1,3E0,1.0152224E0,1E0,-2.729541E-1,6.763296E-1,-6.764534E-1,2.2045717E-2,3.112109E-1,1E0,2E0,-1.27041E-1,-5.2611446E-1,2.5630183E5,1.2176798E5,1E0,9.124379E4,2.4083225E5,1.1179096E5,-2.3440842E4,-3.172185E4,-2.0923287E4,-1.1719184E4,-2.700703E4,-1.7152537E4,-1.2765363E4,-3.9944133E3,-9.203193E3,2.6099412E3,1.707478E5,2.5712527E3,6.733969E4,1.5246362E5,1.1047872E4,8.139313E4,-5.257555E3,-3.894913E4,6.258011E3,3.607631E4,4.6247445E4,2.0940142E3,-1.1617497E4,1.4695859E4,2.888842E4,9.307769E4,3.7437312E4,1.08458305E5,9.005579E4,1.7679323E5,6.8564375E3,6.989881E4,3.0966264E4,5.4374727E3,2.3864254E4,8.661953E4,9.3923164E4,4.594416E4,1.2945025E4,-1.1683858E4,1.9548926E4,-1.5925862E3],"split_indices":[63,7,60,63,63,7,6,63,6,63,6,6,6,18,0,34,6,5,8,18,19,44,29,19,23,1,0,37,52,18,6,19,25,9,5,9,5,4,6,53,5,18,19,18,5,1,7,19,5,0,0,4,0,0,0,0,0,0,0,0,0,0,0,0,0,0,0,0,0,0,0,0,0,0,0,0,0,0,0,0,0,0,0,0,0,0,0,0,0,0,0,0,0,0,0,0,0],"split_type":[0,0,0,0,0,0,0,0,0,0,0,0,0,0,0,0,0,0,0,0,0,0,0,0,0,0,0,0,0,0,0,0,0,0,0,0,0,0,0,0,0,0,0,0,0,0,0,0,0,0,0,0,0,0,0,0,0,0,0,0,0,0,0,0,0,0,0,0,0,0,0,0,0,0,0,0,0,0,0,0,0,0,0,0,0,0,0,0,0,0,0,0,0,0,0,0,0],"sum_hessian":[5.229E3,4.831E3,3.98E2,4.423E3,4.08E2,3.53E2,4.5E1,2.634E3,1.789E3,1.77E2,2.31E2,3.41E2,1.2E1,3.7E1,8E0,7.2E2,1.914E3,1.168E3,6.21E2,8.7E1,9E1,1.83E2,4.8E1,2.57E2,8.4E1,9E0,3E0,1.6E1,2.1E1,4.35E2,2.85E2,5.05E2,1.409E3,1.143E3,2.5E1,1.8E1,6.03E2,7.4E1,1.3E1,3.1E1,5.9E1,1.62E2,2.1E1,3.4E1,1.4E1,1.86E2,7.1E1,7.4E1,1E1,5E0,4E0,1.2E1,4E0,5E0,1.6E1,2.5E2,1.85E2,1.31E2,1.54E2,9.2E1,4.13E2,6.87E2,7.22E2,7.6E2,3.83E2,5E0,2E1,1.4E1,4E0,5.95E2,8E0,7E1,4E0,9E0,4E0,2.4E1,7E0,1.6E1,4.3E1,1.5E2,1.2E1,7E0,1.4E1,1.8E1,1.6E1,5E0,9E0,3.7E1,1.49E2,4.7E1,2.4E1,2E1,5.4E1,2E0,8E0,4E0,8E0],"tree_param":{"num_deleted":"0","num_feature":"64","num_nodes":"97","size_leaf_vector":"1"}},{"base_weights":[2.9854622E3,-1.5711123E4,2.2939878E5,-3.0195736E4,1.4100192E5,1.3673517E5,9.3751875E5,-6.2521938E4,3.5018904E3,2.9424162E4,2.2600123E5,1.1471708E5,7.054623E5,4.2110797E5,3.013751E6,-7.654106E4,-2.6882652E4,-1.7541176E4,5.189241E4,-9.633811E3,1.0449656E5,1.6446738E5,4.524549E5,8.279121E4,2.1027188E5,8.964674E5,1.0316831E4,1.3339538E5,6.2429006E5,7.0141544E5,3.0406484E5,-1.2956316E5,-7.120131E4,-6.196003E4,1.0544499E4,-7.7153555E4,-7.538529E3,3.6410053E5,3.9991957E4,-2.4772875E4,3.529393E4,6.831959E4,4.4213574E4,1.3748839E5,3.5688125E5,1.1701463E5,5.354649E5,4.2811547E4,1.854774E5,1.7047869E5,4.175512E5,2.1358488E5,1.022851E5,7.664479E4,2.704628E4,2.0069355E5,9.074795E4,-2.2183154E4,-2.8927385E4,-1.5599746E3,-1.5015111E4,-2.8738678E4,-1.0417258E4,-3.031695E3,9.639861E3,-1.6663615E4,4.017709E4,1.0150436E4,-4.6029272E3,5.536677E4,1.2806944E5,7.3225444E3,9.155539E4,-7.842904E3,1.7200104E4,2.14166E4,2.6763477E3,2.3148996E4,7.589412E4,2.1388584E4,8.482035E4,3.7191668E4,5.713698E3,8.404971E4,1.5193617E5,2.5889326E4,3.3649028E3,2.2980258E4,8.14106E4,6.186502E4,2.2449498E4,1.24054375E5,4.266335E4,1.6421096E4,-1.3094612E3],"categories":[],"categories_nodes":[],"categories_segments":[],"categories_sizes":[],"default_left":[0,0,0,0,0,0,0,0,0,0,0,0,0,0,0,0,0,0,0,0,0,0,0,0,0,0,0,0,0,0,0,0,0,0,0,0,0,0,0,0,0,0,0,0,0,0,0,0,0,0,0,0,0,0,0,0,0,0,0,0,0,0,0,0,0,0,0,0,0,0,0,0,0,0,0,0,0,0,0,0,0,0,0,0,0,0,0,0,0,0,0,0,0,0,0],"id":6,"left_children":[1,3,5,7,9,11,13,15,17,19,21,23,25,27,29,31,33,35,37,39,41,43,45,47,49,51,-1,53,55,-1,-1,57,59,61,63,65,67,69,71,73,-1,75,-1,77,79,81,83,85,87,89,91,-1,-1,-1,93,-1,-1,-1,-1,-1,-1,-1,-1,-1,-1,-1,-1,-1,-1,-1,-1,-1,-1,-1,-1,-1,-1,-1,-1,-1,-1,-1,-1,-1,-1,-1,-1,-1,-1,-1,-1,-1,-1,-1,-1],"loss_changes":[2.2143008E13,1.0972549E13,2.605297E13,4.8193533E12,3.8723193E12,4.3519616E12,4.8051566E13,1.1261109E12,2.2075338E12,5.2293396E11,3.1584063E12,1.02592047E12,1.5773781E12,2.1381288E12,1.298825E12,4.4943645E11,8.3956204E11,9.0039976E11,2.4264686E12,3.3682866E11,2.4214582E11,9.0610074E11,1.3017421E12,1.05124214E12,6.299223E11,1.1401796E11,0E0,4.4130894E11,9.6740206E11,0E0,0E0,2.5277235E10,3.6147665E11,2.588301E11,3.007612E11,3.8867016E11,1.1694047E12,4.0130157E11,8.783163E11,1.7934497E11,0E0,1.0078678E11,0E0,8.13706E11,3.2426662E11,6.176329E10,6.882465E11,4.1883186E11,1.0791614E12,5.5549795E11,4.059187E11,0E0,0E0,0E0,2.4582834E10,0E0,0E0,0E0,0E0,0E0,0E0,0E0,0E0,0E0,0E0,0E0,0E0,0E0,0E0,0E0,0E0,0E0,0E0,0E0,0E0,0E0,0E0,0E0,0E0,0E0,0E0,0E0,0E0,0E0,0E0,0E0,0E0,0E0,0E0,0E0,0E0,0E0,0E0,0E0,0E0],"parents":[2147483647,0,0,1,1,2,2,3,3,4,4,5,5,6,6,7,7,8,8,9,9,10,10,11,11,12,12,13,13,14,14,15,15,16,16,17,17,18,18,19,19,20,20,21,21,22,22,23,23,24,24,25,25,27,27,28,28,31,31,32,32,33,33,34,34,35,35,36,36,37,37,38,38,39,39,41,41,43,43,44,44,45,45,46,46,47,47,48,48,49,49,50,50,54,54],"right_children":[2,4,6,8,10,12,14,16,18,20,22,24,26,28,30,32,34,36,38,40,42,44,46,48,50,52,-1,54,56,-1,-1,58,60,62,64,66,68,70,72,74,-1,76,-1,78,80,82,84,86,88,90,92,-1,-1,-1,94,-1,-1,-1,-1,-1,-1,-1,-1,-1,-1,-1,-1,-1,-1,-1,-1,-1,-1,-1,-1,-1,-1,-1,-1,-1,-1,-1,-1,-1,-1,-1,-1,-1,-1,-1,-1,-1,-1,-1,-1],"split_conditions":[6.888753E5,4E0,1E0,3.1901744E5,3.32E5,5E0,1.1721312E0,3.0232558E-1,4.028103E-1,6.511628E-1,3.3419204E0,9.028103E-1,1E0,4.1991857E-1,1E0,1.02E5,4.6838406E-3,-7.95082E-1,7E0,1E0,5E0,1E0,4E0,4.5745116E-1,1E0,1E0,1.0316831E4,-4.1860464E-1,1E0,7.0141544E5,3.0406484E5,-7.611241E-2,1E0,1E0,2.94E5,1.2843673E0,5E0,9.0697676E-1,8E0,4.0644026E0,3.529393E4,-7.535958E-1,4.4213574E4,6.763296E-1,1.0327868E0,5.5813956E-1,1E0,2E0,3E0,2E0,-1.6511627E0,2.1358488E5,1.022851E5,7.664479E4,1E0,2.0069355E5,9.074795E4,-2.2183154E4,-2.8927385E4,-1.5599746E3,-1.5015111E4,-2.8738678E4,-1.0417258E4,-3.031695E3,9.639861E3,-1.6663615E4,4.017709E4,1.0150436E4,-4.6029272E3,5.536677E4,1.2806944E5,7.3225444E3,9.155539E4,-7.842904E3,1.7200104E4,2.14166E4,2.6763477E3,2.3148996E4,7.589412E4,2.1388584E4,8.482035E4,3.7191668E4,5.713698E3,8.404971E4,1.5193617E5,2.5889326E4,3.3649028E3,2.2980258E4,8.14106E4,6.186502E4,2.2449498E4,1.24054375E5,4.266335E4,1.6421096E4,-1.3094612E3],"split_indices":[63,7,60,63,63,7,6,2,6,2,6,6,0,18,0,63,6,6,12,0,7,44,16,19,53,1,0,2,52,0,0,6,16,13,63,19,17,2,9,6,0,19,0,18,6,2,22,16,11,10,2,0,0,0,4,0,0,0,0,0,0,0,0,0,0,0,0,0,0,0,0,0,0,0,0,0,0,0,0,0,0,0,0,0,0,0,0,0,0,0,0,0,0,0,0],"split_type":[0,0,0,0,0,0,0,0,0,0,0,0,0,0,0,0,0,0,0,0,0,0,0,0,0,0,0,0,0,0,0,0,0,0,0,0,0,0,0,0,0,0,0,0,0,0,0,0,0,0,0,0,0,0,0,0,0,0,0,0,0,0,0,0,0,0,0,0,0,0,0,0,0,0,0,0,0,0,0,0,0,0,0,0,0,0,0,0,0,0,0,0,0,0,0],"sum_hessian":[5.229E3,4.831E3,3.98E2,4.423E3,4.08E2,3.53E2,4.5E1,2.257E3,2.166E3,1.77E2,2.31E2,3.41E2,1.2E1,3.7E1,8E0,1.619E3,6.38E2,1.51E3,6.56E2,1.17E2,6E1,1.83E2,4.8E1,2.57E2,8.4E1,9E0,3E0,1.6E1,2.1E1,5E0,3E0,1.46E2,1.473E3,3.29E2,3.09E2,2.16E2,1.294E3,2.3E1,6.33E2,1.09E2,8E0,4.7E1,1.3E1,1.62E2,2.1E1,1E1,3.8E1,1.86E2,7.1E1,7.2E1,1.2E1,5E0,4E0,4E0,1.2E1,5E0,1.6E1,6.9E1,7.7E1,8.5E1,1.388E3,3.4E1,2.95E2,1.84E2,1.25E2,2.12E2,4E0,2.71E2,1.023E3,1.9E1,4E0,6.29E2,4E0,9.7E1,1.2E1,2.7E1,2E1,1.5E2,1.2E1,5E0,1.6E1,5E0,5E0,2.7E1,1.1E1,4.2E1,1.44E2,5.5E1,1.6E1,2E1,5.2E1,5E0,7E0,4E0,8E0],"tree_param":{"num_deleted":"0","num_feature":"64","num_nodes":"95","size_leaf_vector":"1"}},{"base_weights":[2.9443535E3,-1.699523E4,1.4648598E5,-4.2947473E4,3.4231555E4,1.5128072E6,1.1787791E5,-5.6357316E4,-1.3973287E4,2.0460908E4,1.3535381E5,2.6638856E5,5.845129E5,1.0211514E4,2.0668075E5,-8.6952125E4,-4.7271246E4,-3.34105E4,9.632424E3,-1.3748077E4,4.75311E4,9.966769E4,5.641152E5,2.796088E4,6.2875637E4,-3.540852E4,4.1921824E4,1.3782955E5,4.427404E5,-1.0219413E5,-6.6651195E4,3.3337363E4,-5.0849914E4,-4.1447918E4,-8.862464E3,2.1261025E5,1.9137561E3,-7.831974E4,2.9964612E3,9.030386E4,1.6218408E4,5.151572E4,1.6743998E5,6.400609E4,1.6724462E5,-2.5656725E4,-3.3013926E4,7.4091414E4,-1.721829E4,1.1277093E5,3.6576628E5,3.908366E5,2.5845511E5,-2.4058963E4,-1.5117038E4,3.1772046E3,-1.5615203E4,-1.367953E3,4.4949746E4,-2.0574115E4,-8.709117E3,-1.3828408E4,-6.8571875E3,-4.7360728E3,8.461547E3,4.8283906E4,1.3165505E4,-1.3820187E3,1.7270855E4,-1.8550395E4,1.2637971E3,-7.851707E3,3.1398386E3,4.3407777E4,1.230589E4,9.912321E2,2.1618037E4,4.862114E2,2.8287348E4,7.778041E4,2.4071383E4,-8.548732E3,1.4066643E4,2.1290158E4,7.0406562E3,1.204413E4,-9.846833E3,1.6912277E4,4.6877383E4,4.381934E4,1.3367717E5,1.7798742E5,6.835446E4],"categories":[],"categories_nodes":[],"categories_segments":[],"categories_sizes":[],"default_left":[0,0,0,0,0,0,0,0,0,0,0,0,0,0,0,0,0,0,0,0,0,0,0,0,0,0,0,0,0,0,0,0,0,0,0,0,0,0,0,0,0,0,0,0,0,0,0,0,0,0,0,0,0,0,0,0,0,0,0,0,0,0,0,0,0,0,0,0,0,0,0,0,0,0,0,0,0,0,0,0,0,0,0,0,0,0,0,0,0,0,0,0,0],"id":7,"left_children":[1,3,5,7,9,11,13,15,17,19,21,23,-1,25,27,29,31,33,35,37,39,41,43,-1,-1,45,47,49,51,53,55,57,59,61,63,65,67,69,71,73,75,77,79,-1,-1,81,-1,83,85,87,89,91,-1,-1,-1,-1,-1,-1,-1,-1,-1,-1,-1,-1,-1,-1,-1,-1,-1,-1,-1,-1,-1,-1,-1,-1,-1,-1,-1,-1,-1,-1,-1,-1,-1,-1,-1,-1,-1,-1,-1,-1,-1],"loss_changes":[1.4971589E13,6.107634E12,2.475971E13,1.183869E12,2.1486723E12,2.206438E13,5.983127E12,5.7521367E11,4.435508E11,1.2609991E12,2.7744299E12,4.6463713E9,0E0,4.12326E11,5.5137534E12,1.4047589E11,4.6584535E11,1.0420322E11,6.84249E11,6.5113077E11,1.01642627E12,5.526739E11,6.622266E11,0E0,0E0,1.4370297E11,3.208979E11,1.4837974E12,2.8901764E12,1.20950096E11,1.9643557E11,5.32172E11,5.8106315E11,7.676894E10,1.0108885E11,5.176728E10,3.1502483E11,1.5205525E11,2.5772145E11,1.1572446E12,4.547246E11,4.4985788E11,6.9351794E11,0E0,0E0,1.8342543E11,0E0,1.33417665E11,1.5172143E11,8.1041687E11,1.00757144E12,1.5079582E12,0E0,0E0,0E0,0E0,0E0,0E0,0E0,0E0,0E0,0E0,0E0,0E0,0E0,0E0,0E0,0E0,0E0,0E0,0E0,0E0,0E0,0E0,0E0,0E0,0E0,0E0,0E0,0E0,0E0,0E0,0E0,0E0,0E0,0E0,0E0,0E0,0E0,0E0,0E0,0E0,0E0],"parents":[2147483647,0,0,1,1,2,2,3,3,4,4,5,5,6,6,7,7,8,8,9,9,10,10,11,11,13,13,14,14,15,15,16,16,17,17,18,18,19,19,20,20,21,21,22,22,25,25,26,26,27,27,28,28,29,29,30,30,31,31,32,32,33,33,34,34,35,35,36,36,37,37,38,38,39,39,40,40,41,41,42,42,45,45,47,47,48,48,49,49,50,50,51,51],"right_children":[2,4,6,8,10,12,14,16,18,20,22,24,-1,26,28,30,32,34,36,38,40,42,44,-1,-1,46,48,50,52,54,56,58,60,62,64,66,68,70,72,74,76,78,80,-1,-1,82,-1,84,86,88,90,92,-1,-1,-1,-1,-1,-1,-1,-1,-1,-1,-1,-1,-1,-1,-1,-1,-1,-1,-1,-1,-1,-1,-1,-1,-1,-1,-1,-1,-1,-1,-1,-1,-1,-1,-1,-1,-1,-1,-1,-1,-1],"split_conditions":[1.3185011E0,4.6461538E5,1E0,1E0,7.235E5,9E0,3.315E5,1.85E5,2.6112413E-1,-1.1358314E-1,1E0,1E0,5.845129E5,2.71E5,3.3419204E0,7.900865E-2,1E0,2.0061697E-1,3E0,-1.0369735E0,1.5E1,-2.2131148E-1,4.8711944E-1,2.796088E4,6.2875637E4,3E1,6.122113E-1,1E0,3.5430473E1,1.2E5,-2.4533157E-1,7.081394E-2,8E0,3E0,2E0,3.992016E-3,2.4707253E0,1E0,-6.4554226E-1,1E0,1E0,1E0,-1.5105386E-1,6.400609E4,1.6724462E5,3.7356954E0,-3.3013926E4,1E0,3.5580987E-1,1E0,1E0,1E0,2.5845511E5,-2.4058963E4,-1.5117038E4,3.1772046E3,-1.5615203E4,-1.367953E3,4.4949746E4,-2.0574115E4,-8.709117E3,-1.3828408E4,-6.8571875E3,-4.7360728E3,8.461547E3,4.8283906E4,1.3165505E4,-1.3820187E3,1.7270855E4,-1.8550395E4,1.2637971E3,-7.851707E3,3.1398386E3,4.3407777E4,1.230589E4,9.912321E2,2.1618037E4,4.862114E2,2.8287348E4,7.778041E4,2.4071383E4,-8.548732E3,1.4066643E4,2.1290158E4,7.0406562E3,1.204413E4,-9.846833E3,1.6912277E4,4.6877383E4,4.381934E4,1.3367717E5,1.7798742E5,6.835446E4],"split_indices":[6,63,8,40,63,17,63,63,6,6,60,4,0,63,6,5,1,18,11,19,17,6,6,0,0,17,18,60,5,63,18,19,12,11,10,5,5,58,5,62,60,28,6,0,0,5,0,34,19,36,0,1,0,0,0,0,0,0,0,0,0,0,0,0,0,0,0,0,0,0,0,0,0,0,0,0,0,0,0,0,0,0,0,0,0,0,0,0,0,0,0,0,0],"split_type":[0,0,0,0,0,0,0,0,0,0,0,0,0,0,0,0,0,0,0,0,0,0,0,0,0,0,0,0,0,0,0,0,0,0,0,0,0,0,0,0,0,0,0,0,0,0,0,0,0,0,0,0,0,0,0,0,0,0,0,0,0,0,0,0,0,0,0,0,0,0,0,0,0,0,0,0,0,0,0,0,0,0,0,0,0,0,0,0,0,0,0,0,0],"sum_hessian":[5.229E3,4.592E3,6.37E2,3.048E3,1.544E3,1.2E1,6.25E2,2.083E3,9.65E2,1.36E3,1.84E2,7E0,5E0,2.83E2,3.42E2,4.75E2,1.608E3,5.29E2,4.36E2,6.01E2,7.59E2,1.71E2,1.3E1,3E0,4E0,1.16E2,1.67E2,2.66E2,7.6E1,2.69E2,2.06E2,6.8E1,1.54E3,3.98E2,1.31E2,1.5E1,4.21E2,1.23E2,4.78E2,3.2E2,4.39E2,1.01E2,7E1,8E0,5E0,1.09E2,7E0,1.08E2,5.9E1,2.41E2,2.5E1,7.3E1,3E0,1.58E2,1.11E2,2.5E1,1.81E2,5.7E1,1.1E1,1.88E2,1.352E3,8E1,3.18E2,1.02E2,2.9E1,1.2E1,3E0,3.82E2,3.9E1,1.05E2,1.8E1,1.1E2,3.68E2,5.8E1,2.62E2,3.92E2,4.7E1,6.6E1,3.5E1,1.1E1,5.9E1,9.3E1,1.6E1,5.8E1,5E1,1.7E1,4.2E1,1.97E2,4.4E1,1.8E1,7E0,5E0,6.8E1],"tree_param":{"num_deleted":"0","num_feature":"64","num_nodes":"93","size_leaf_vector":"1"}},{"base_weights":[2.7122214E3,-9.961434E3,1.5618688E5,-1.5574125E4,1.7287102E5,9.058457E4,6.5764406E5,-3.5771664E4,1.61987295E4,1.5236569E5,1.4248928E5,7.535778E4,4.8419822E5,2.959229E5,2.1118398E6,-5.5451906E4,-1.6581492E4,-5.320136E3,5.4579426E4,1.18492336E5,3.7536875E5,5.1863996E4,1.4578177E5,6.324254E5,-1.4838563E3,3.811915E5,-2.1186027E4,4.87094E5,2.1968686E5,-6.444201E4,-3.834928E4,-2.5920945E4,2.8682055E4,-1.753749E4,3.5034656E4,3.2503697E4,1.0843579E5,-5.3056832E4,1.446404E5,8.1590914E4,4.181094E4,3.2948492E4,1.9452353E5,1.1095158E5,3.3015266E5,1.4832284E5,7.4982766E4,4.7411003E5,1.1170271E5,-5.55791E3,-2.06906E3,-1.4876085E4,-9.041274E3,-5.0715093E3,-1.0444894E4,-5.906697E3,2.6557312E4,3.3678906E3,3.7861637E4,-5.038369E3,6.754458E3,4.118754E3,2.7799525E4,1.9878309E4,2.9760774E3,9.037607E4,1.8171295E4,-3.0068943E4,-2.311423E3,5.8311997E3,3.5536445E4,9.393415E2,1.3253555E4,7.292224E4,1.5372335E4,5.7960824E4,1.4203317E4,1.0055994E5,3.187966E4,1.393705E5,7.352124E4,6.848475E3,3.33645E4],"categories":[],"categories_nodes":[],"categories_segments":[],"categories_sizes":[],"default_left":[0,0,0,0,0,0,0,0,0,0,0,0,0,0,0,0,0,0,0,0,0,0,0,0,0,0,0,0,0,0,0,0,0,0,0,0,0,0,0,0,0,0,0,0,0,0,0,0,0,0,0,0,0,0,0,0,0,0,0,0,0,0,0,0,0,0,0,0,0,0,0,0,0,0,0,0,0,0,0,0,0,0,0],"id":8,"left_children":[1,3,5,7,9,11,13,15,17,19,-1,21,23,25,27,29,31,33,35,37,39,41,43,45,-1,47,49,-1,-1,51,53,55,57,59,61,63,65,67,69,-1,-1,71,73,75,77,-1,-1,79,81,-1,-1,-1,-1,-1,-1,-1,-1,-1,-1,-1,-1,-1,-1,-1,-1,-1,-1,-1,-1,-1,-1,-1,-1,-1,-1,-1,-1,-1,-1,-1,-1,-1,-1],"loss_changes":[1.017435E13,4.9612047E12,1.3066232E13,3.0096674E12,1.4846892E12,2.0852011E12,2.357167E13,1.0818523E12,1.5059226E12,1.0130618E12,0E0,5.58287E11,9.520158E11,1.0355742E12,2.765137E11,2.1509099E11,6.1498006E11,5.7696505E11,7.752168E11,5.594128E11,1.2265718E10,6.897977E11,5.0921118E11,3.1326208E9,0E0,6.982554E11,3.567918E8,0E0,0E0,1.7366254E11,8.700448E10,6.9479255E11,4.704678E11,3.5353425E11,4.0549584E11,5.4783492E11,1.1060731E12,6.6898588E10,4.0311167E11,0E0,0E0,2.1525316E11,5.723602E11,5.0081976E11,3.030977E11,0E0,0E0,2.6573695E11,3.2713982E10,0E0,0E0,0E0,0E0,0E0,0E0,0E0,0E0,0E0,0E0,0E0,0E0,0E0,0E0,0E0,0E0,0E0,0E0,0E0,0E0,0E0,0E0,0E0,0E0,0E0,0E0,0E0,0E0,0E0,0E0,0E0,0E0,0E0,0E0],"parents":[2147483647,0,0,1,1,2,2,3,3,4,4,5,5,6,6,7,7,8,8,9,9,11,11,12,12,13,13,14,14,15,15,16,16,17,17,18,18,19,19,20,20,21,21,22,22,23,23,25,25,26,26,29,29,30,30,31,31,32,32,33,33,34,34,35,35,36,36,37,37,38,38,41,41,42,42,43,43,44,44,47,47,48,48],"right_children":[2,4,6,8,10,12,14,16,18,20,-1,22,24,26,28,30,32,34,36,38,40,42,44,46,-1,48,50,-1,-1,52,54,56,58,60,62,64,66,68,70,-1,-1,72,74,76,78,-1,-1,80,82,-1,-1,-1,-1,-1,-1,-1,-1,-1,-1,-1,-1,-1,-1,-1,-1,-1,-1,-1,-1,-1,-1,-1,-1,-1,-1,-1,-1,-1,-1,-1,-1,-1,-1],"split_conditions":[6.888753E5,5E0,1E0,2E0,9E0,5E0,1.1721312E0,3.035378E5,4.6589144E5,6.4292E5,1.4248928E5,9.028103E-1,1E0,3E0,1E0,1E0,1E0,9.742389E-1,1.0327868E0,3.035378E5,6.9767445E-2,7.4418604E-1,1E0,1E0,-1.4838563E3,1E0,1.1627907E-1,4.87094E5,2.1968686E5,6.0046572E-2,1E0,6.158683E0,1E0,8.604651E-1,5.900808E-1,-3.255814E-1,1E0,-1.6511627E0,2E0,8.1590914E4,4.181094E4,6.80939E-2,1E0,1E0,-1.6511627E0,1.4832284E5,7.4982766E4,-9.419494E-1,1.627907E-1,-5.55791E3,-2.06906E3,-1.4876085E4,-9.041274E3,-5.0715093E3,-1.0444894E4,-5.906697E3,2.6557312E4,3.3678906E3,3.7861637E4,-5.038369E3,6.754458E3,4.118754E3,2.7799525E4,1.9878309E4,2.9760774E3,9.037607E4,1.8171295E4,-3.0068943E4,-2.311423E3,5.8311997E3,3.5536445E4,9.393415E2,1.3253555E4,7.292224E4,1.5372335E4,5.7960824E4,1.4203317E4,1.0055994E5,3.187966E4,1.393705E5,7.352124E4,6.848475E3,3.33645E4],"split_indices":[63,7,60,9,7,7,6,63,63,63,0,6,0,10,0,27,32,6,6,63,2,2,53,1,0,41,2,0,0,5,55,5,33,2,19,2,8,2,10,0,0,19,61,1,2,0,0,5,2,0,0,0,0,0,0,0,0,0,0,0,0,0,0,0,0,0,0,0,0,0,0,0,0,0,0,0,0,0,0,0,0,0,0],"split_type":[0,0,0,0,0,0,0,0,0,0,0,0,0,0,0,0,0,0,0,0,0,0,0,0,0,0,0,0,0,0,0,0,0,0,0,0,0,0,0,0,0,0,0,0,0,0,0,0,0,0,0,0,0,0,0,0,0,0,0,0,0,0,0,0,0,0,0,0,0,0,0,0,0,0,0,0,0,0,0,0,0,0,0],"sum_hessian":[5.229E3,4.831E3,3.98E2,4.688E3,1.43E2,3.53E2,4.5E1,2.866E3,1.822E3,1.39E2,4E0,3.41E2,1.2E1,3.7E1,8E0,1.414E3,1.452E3,1.168E3,6.54E2,1.22E2,1.7E1,2.57E2,8.4E1,9E0,3E0,2.9E1,8E0,5E0,3E0,9.25E2,4.89E2,1.204E3,2.48E2,8.97E2,2.71E2,4.65E2,1.89E2,1.6E1,1.06E2,1.3E1,4E0,2.28E2,2.9E1,7.2E1,1.2E1,5E0,4E0,2.1E1,8E0,4E0,4E0,6.08E2,3.17E2,2.54E2,2.35E2,1.178E3,2.6E1,2.32E2,1.6E1,7.81E2,1.16E2,2.39E2,3.2E1,9.6E1,3.69E2,8E0,1.81E2,4E0,1.2E1,2.4E1,8.2E1,1.24E2,1.04E2,1.1E1,1.8E1,1.2E1,6E1,5E0,7E0,5E0,1.6E1,4E0,4E0],"tree_param":{"num_deleted":"0","num_feature":"64","num_nodes":"83","size_leaf_vector":"1"}},{"base_weights":[2.5413894E3,-5.9885557E3,1.6694789E5,-1.3811733E4,8.0880414E4,1.06126086E5,9.2643656E5,-2.9801941E4,1.5227745E4,6.3767043E4,3.1268956E5,8.044339E4,1.6817378E5,3.8749603E5,4.059117E5,-4.4195734E4,-1.3622462E4,4.6110027E4,-3.0619924E3,3.1904893E4,1.2875537E5,1.8276834E5,1.0565419E5,1.5377419E5,2.0131936E4,1.16142086E5,4.3126266E4,4.9664985E3,-4.8083098E4,-1.9464422E4,3.7734605E4,8.180411E4,7.3029497E3,-1.2509902E4,9.580392E4,1.978589E4,1.4974572E5,1.076179E5,6.7990914E4,6.274129E4,9.82041E4,1.2854849E5,4.885699E5,7.4830483E3,6.646554E4,-3.2622375E3,3.7791848E4,-1.9257316E4,-8.0318667E3,-5.3405073E3,-8.155765E1,3.8813196E3,2.1102459E4,2.1161245E3,3.2948668E4,-5.3637957E4,2.4187444E3,-3.9219363E3,1.55766045E4,1.4540055E4,8.065754E4,7.1370312E3,-1.180253E4,5.0655855E4,1.1540363E4,-3.2355203E3,2.5807826E4,2.6071E4,1.3886185E4,1.4104167E4,5.463429E4,1.1844152E5,5.255795E4,3.8633787E3,-1.1910805E4],"categories":[],"categories_nodes":[],"categories_segments":[],"categories_sizes":[],"default_left":[0,0,0,0,0,0,0,0,0,0,0,0,0,0,0,0,0,0,0,0,0,0,0,0,0,0,0,0,0,0,0,0,0,0,0,0,0,0,0,0,0,0,0,0,0,0,0,0,0,0,0,0,0,0,0,0,0,0,0,0,0,0,0,0,0,0,0,0,0,0,0,0,0,0,0],"id":9,"left_children":[1,3,5,7,9,11,13,15,17,19,21,23,-1,25,-1,27,29,31,33,35,37,39,-1,41,43,-1,-1,45,47,49,51,53,55,57,59,61,63,65,-1,-1,67,69,71,73,-1,-1,-1,-1,-1,-1,-1,-1,-1,-1,-1,-1,-1,-1,-1,-1,-1,-1,-1,-1,-1,-1,-1,-1,-1,-1,-1,-1,-1,-1,-1],"loss_changes":[7.3354387E12,3.3807252E12,1.1819597E13,2.1192709E12,1.6105129E12,4.4612E12,1.0509378E13,6.847757E11,9.1572876E11,7.9102843E11,6.8768943E11,1.0273902E12,0E0,3.3967505E11,0E0,2.9779925E11,4.168704E11,8.3466794E11,9.530222E11,3.6691853E11,5.2590595E11,1.7957369E11,0E0,8.2396814E11,5.06925E11,0E0,0E0,4.5330022E11,5.4729114E11,1.7185502E11,1.7434904E11,1.8531246E12,3.85992E11,5.9901497E11,6.029366E11,2.9777592E11,2.1409648E11,3.0970243E11,0E0,0E0,2.9754245E9,8.1155654E11,8.1693245E9,1.0031369E11,0E0,0E0,0E0,0E0,0E0,0E0,0E0,0E0,0E0,0E0,0E0,0E0,0E0,0E0,0E0,0E0,0E0,0E0,0E0,0E0,0E0,0E0,0E0,0E0,0E0,0E0,0E0,0E0,0E0,0E0,0E0],"parents":[2147483647,0,0,1,1,2,2,3,3,4,4,5,5,6,6,7,7,8,8,9,9,10,10,11,11,13,13,15,15,16,16,17,17,18,18,19,19,20,20,21,21,23,23,24,24,27,27,28,28,29,29,30,30,31,31,32,32,33,33,34,34,35,35,36,36,37,37,40,40,41,41,42,42,43,43],"right_children":[2,4,6,8,10,12,14,16,18,20,22,24,-1,26,-1,28,30,32,34,36,38,40,-1,42,44,-1,-1,46,48,50,52,54,56,58,60,62,64,66,-1,-1,68,70,72,74,-1,-1,-1,-1,-1,-1,-1,-1,-1,-1,-1,-1,-1,-1,-1,-1,-1,-1,-1,-1,-1,-1,-1,-1,-1,-1,-1,-1,-1,-1,-1],"split_conditions":[1E0,4E0,7.235E5,4.345E5,1.0882764E6,4.844262E0,8.1395346E-1,1E0,-2.3255815E-1,1E0,5E0,-1.0173157E-1,1.6817378E5,3.9534885E-1,4.059117E5,1E0,8.8372093E-1,1.1173718E-2,7.235E5,4.844262E0,1E0,2.2845433E0,1.0565419E5,1E0,5E0,1.16142086E5,4.3126266E4,7.081394E-2,8E0,4E0,1E0,-1.1943794E-1,1E0,3E0,2E0,2E0,3E0,2E0,6.7990914E4,6.274129E4,1E0,-1.27041E-1,1.3953489E-1,1E0,6.646554E4,-3.2622375E3,3.7791848E4,-1.9257316E4,-8.0318667E3,-5.3405073E3,-8.155765E1,3.8813196E3,2.1102459E4,2.1161245E3,3.2948668E4,-5.3637957E4,2.4187444E3,-3.9219363E3,1.55766045E4,1.4540055E4,8.065754E4,7.1370312E3,-1.180253E4,5.0655855E4,1.1540363E4,-3.2355203E3,2.5807826E4,2.6071E4,1.3886185E4,1.4104167E4,5.463429E4,1.1844152E5,5.255795E4,3.8633787E3,-1.1910805E4],"split_indices":[60,7,63,63,63,6,2,9,2,28,7,19,0,2,0,1,2,19,63,6,3,6,0,0,7,0,0,19,12,11,61,6,7,9,9,4,9,17,0,0,4,19,2,58,0,0,0,0,0,0,0,0,0,0,0,0,0,0,0,0,0,0,0,0,0,0,0,0,0,0,0,0,0,0,0],"split_type":[0,0,0,0,0,0,0,0,0,0,0,0,0,0,0,0,0,0,0,0,0,0,0,0,0,0,0,0,0,0,0,0,0,0,0,0,0,0,0,0,0,0,0,0,0,0,0,0,0,0,0,0,0,0,0,0,0,0,0,0,0,0,0,0,0,0,0,0,0,0,0,0,0,0,0],"sum_hessian":[5.229E3,4.972E3,2.57E2,4.562E3,4.1E2,2.39E2,1.8E1,2.942E3,1.62E3,3.83E2,2.7E1,2.32E2,7E0,1.3E1,5E0,1.556E3,1.386E3,6.02E2,1.018E3,2.58E2,1.25E2,1.8E1,9E0,1.04E2,1.28E2,5E0,8E0,1.14E2,1.442E3,1.245E3,1.41E2,3.13E2,2.89E2,9.3E2,8.8E1,2.35E2,2.3E1,1.15E2,1E1,6E0,1.2E1,9.8E1,6E0,1.24E2,4E0,1.03E2,1.1E1,2.02E2,1.24E3,9.02E2,3.43E2,1.12E2,2.9E1,1.69E2,1.44E2,4E0,2.85E2,8.63E2,6.7E1,8.3E1,5E0,1.96E2,3.9E1,1E1,1.3E1,1.7E1,9.8E1,4E0,8E0,7.1E1,2.7E1,3E0,3E0,1.06E2,1.8E1],"tree_param":{"num_deleted":"0","num_feature":"64","num_nodes":"75","size_leaf_vector":"1"}},{"base_weights":[2.3209597E3,-4.6955425E3,1.375564E5,-8.35207E3,1.2541456E5,8.684391E4,7.708955E5,-1.5734514E4,2.2936479E4,4.445545E5,9.929792E4,6.563435E4,1.3874336E5,3.213732E5,3.382597E5,-2.3613113E4,3.3933018E3,-3.4861137E4,3.70633E4,5.06298E4,1.05993336E5,6.810309E4,2.2384869E5,4.0826406E4,1.8799114E5,1.7729689E5,9.6785086E4,2.8114377E4,-2.6938748E4,-3.0199841E3,4.862372E4,-4.633366E4,1.670996E5,2.4789305E4,1.0527418E5,4.6218332E4,2.9154188E5,8.8987125E4,5.4270227E4,2.033879E4,1.7321366E5,8.245304E4,1.168151E5,2.112598E4,4.2700902E4,-2.6819686E4,1.0439974E4,-1.3311489E4,-3.9236763E3,-4.315893E3,3.556487E3,8.007354E3,5.517976E4,-2.7953197E4,-6.5011465E3,-3.362625E3,3.7880492E4,1.0710256E4,-2.4322405E3,8.368064E4,1.798893E4,-8.612271E3,1.5067263E4,7.719431E4,3.5999688E4,2.189964E4,8.2203E3,2.2187137E4,-9.6571045E2,-4.844404E3,4.6731094E4,3.329398E4,-1.5442265E4],"categories":[],"categories_nodes":[],"categories_segments":[],"categories_sizes":[],"default_left":[0,0,0,0,0,0,0,0,0,0,0,0,0,0,0,0,0,0,0,0,0,0,0,0,0,0,0,0,0,0,0,0,0,0,0,0,0,0,0,0,0,0,0,0,0,0,0,0,0,0,0,0,0,0,0,0,0,0,0,0,0,0,0,0,0,0,0,0,0,0,0,0,0],"id":10,"left_children":[1,3,5,7,9,11,13,15,17,19,21,23,-1,25,-1,27,29,31,33,-1,-1,35,37,39,41,43,-1,45,47,49,51,53,55,57,59,61,63,65,-1,67,69,-1,71,-1,-1,-1,-1,-1,-1,-1,-1,-1,-1,-1,-1,-1,-1,-1,-1,-1,-1,-1,-1,-1,-1,-1,-1,-1,-1,-1,-1,-1,-1],"loss_changes":[4.963287E12,2.366958E12,8.21955E12,1.1178709E12,1.08939824E12,3.0436295E12,7.3175537E12,5.900723E11,7.557352E11,2.9322904E10,4.781934E11,6.9957806E11,0E0,2.4208042E11,0E0,4.7778746E11,3.3170322E11,4.294361E11,6.194449E11,0E0,0E0,4.9018552E11,1.3600961E11,5.2537547E11,5.743958E11,8.015708E8,0E0,6.633718E11,7.544955E11,3.8723804E11,2.660811E11,2.1896849E11,4.4202197E10,6.7125884E11,5.047807E11,2.5021027E11,2.5322783E10,3.3569464E9,0E0,3.8814974E11,3.1592717E11,0E0,3.1151794E11,0E0,0E0,0E0,0E0,0E0,0E0,0E0,0E0,0E0,0E0,0E0,0E0,0E0,0E0,0E0,0E0,0E0,0E0,0E0,0E0,0E0,0E0,0E0,0E0,0E0,0E0,0E0,0E0,0E0,0E0],"parents":[2147483647,0,0,1,1,2,2,3,3,4,4,5,5,6,6,7,7,8,8,9,9,10,10,11,11,13,13,15,15,16,16,17,17,18,18,21,21,22,22,23,23,24,24,25,25,27,27,28,28,29,29,30,30,31,31,32,32,33,33,34,34,35,35,36,36,37,37,39,39,40,40,42,42],"right_children":[2,4,6,8,10,12,14,16,18,20,22,24,-1,26,-1,28,30,32,34,-1,-1,36,38,40,42,44,-1,46,48,50,52,54,56,58,60,62,64,66,-1,68,70,-1,72,-1,-1,-1,-1,-1,-1,-1,-1,-1,-1,-1,-1,-1,-1,-1,-1,-1,-1,-1,-1,-1,-1,-1,-1,-1,-1,-1,-1,-1,-1],"split_conditions":[1E0,3.2447307E0,6.7832226E-1,1E0,1E0,4.844262E0,5.8899295E-1,1E0,-1.0369735E0,1E0,6.749983E-1,1.4309133E0,1.3874336E5,4.8711944E-1,3.382597E5,1E0,1.2540984E0,2.439188E-2,1E0,5.06298E4,1.05993336E5,1E0,-6.6799736E-1,1E0,4E0,-9.549235E-1,9.6785086E4,-3.0788425E-1,8E0,1E0,1E0,-1.3826795E0,-1.0143048E0,1.6E1,-1.0303377E0,4E0,1E0,1E0,5.4270227E4,-1.771305E0,-1.0693613E0,8.245304E4,2.4E1,2.112598E4,4.2700902E4,-2.6819686E4,1.0439974E4,-1.3311489E4,-3.9236763E3,-4.315893E3,3.556487E3,8.007354E3,5.517976E4,-2.7953197E4,-6.5011465E3,-3.362625E3,3.7880492E4,1.0710256E4,-2.4322405E3,8.368064E4,1.798893E4,-8.612271E3,1.5067263E4,7.719431E4,3.5999688E4,2.189964E4,8.2203E3,2.2187137E4,-9.6571045E2,-4.844404E3,4.6731094E4,3.329398E4,-1.5442265E4],"split_indices":[60,6,18,28,1,6,6,45,19,4,18,6,0,6,0,1,6,18,36,0,0,43,5,29,11,5,0,5,12,61,44,18,5,17,19,16,3,4,0,18,5,0,17,0,0,0,0,0,0,0,0,0,0,0,0,0,0,0,0,0,0,0,0,0,0,0,0,0,0,0,0,0,0],"split_type":[0,0,0,0,0,0,0,0,0,0,0,0,0,0,0,0,0,0,0,0,0,0,0,0,0,0,0,0,0,0,0,0,0,0,0,0,0,0,0,0,0,0,0,0,0,0,0,0,0,0,0,0,0,0,0,0,0,0,0,0,0,0,0,0,0,0,0,0,0,0,0,0,0],"sum_hessian":[5.229E3,4.972E3,2.57E2,4.837E3,1.35E2,2.39E2,1.8E1,3.914E3,9.23E2,9E0,1.26E2,2.32E2,7E0,1.3E1,5E0,2.772E3,1.142E3,1.81E2,7.42E2,4E0,5E0,1.02E2,2.4E1,1.94E2,3.8E1,8E0,5E0,1.67E2,2.605E3,1.001E3,1.41E2,1.72E2,9E0,6.3E2,1.12E2,9.4E1,8E0,7E0,1.7E1,1.69E2,2.5E1,8E0,3E1,4E0,4E0,2.1E1,1.46E2,4.05E2,2.2E3,5.29E2,4.72E2,1.37E2,4E0,2.1E1,1.51E2,1E0,8E0,3.54E2,2.76E2,4E0,1.08E2,2.3E1,7.1E1,3E0,5E0,4E0,3E0,3.6E1,1.33E2,6E0,1.9E1,2.4E1,6E0],"tree_param":{"num_deleted":"0","num_feature":"64","num_nodes":"73","size_leaf_vector":"1"}},{"base_weights":[2.105434E3,-5.735633E3,9.705764E4,-2.1295295E4,1.6382853E4,6.010753E4,3.793029E5,-2.5468146E4,3.023068E4,1.0316601E4,1.2130672E5,4.7822867E4,2.2702906E5,1.6256631E5,2.5045362E5,-4.128671E4,-1.8027049E4,2.457633E3,8.458543E4,2.4422932E3,4.4670273E4,1.8610173E5,2.8520023E4,3.4962324E4,1.522367E5,-9.720834E3,3.6788344E5,3.1773809E4,2.5624386E5,-1.3857316E5,-3.559847E4,-2.8023326E4,3.7567432E2,-4.0401816E3,1.978596E4,1.9301869E5,4.2071266E4,3.4343258E4,-5.8090547E3,-5.165216E4,4.889437E4,4.1523195E4,2.1866748E5,9.2316586E4,-8.57398E4,1.010431E5,1.8085494E4,7.629562E4,3.178941E5,4.2447125E4,8.386766E4,3.443082E4,-2.466275E4,8.065425E4,1.8927867E5,7.27375E2,-3.120091E4,-8.1820337E3,-2.2241011E2,-8.266908E3,-2.8438484E3,-2.1580225E3,1.4226247E4,-2.1652691E4,-1.0323317E-1,5.894069E3,4.9114023E4,1.0934386E4,-2.5190963E4,2.9297748E4,2.339823E3,-5.4097163E3,1.2608231E3,2.717187E3,1.7869965E4,-6.245146E3,1.1517796E4,2.4708914E4,5.915782E4,2.6736129E4,-7.559175E2,4.916E2,-2.2613332E4,-1.2344809E4,3.1334092E4,-1.0660507E3,1.6568434E4,-1.4750552E4,2.3106693E4,8.2190805E4,4.1201855E4,-6.7708003E3,-3.363239E3,1.774582E4,4.267834E4],"categories":[],"categories_nodes":[],"categories_segments":[],"categories_sizes":[],"default_left":[0,0,0,0,0,0,0,0,0,0,0,0,0,0,0,0,0,0,0,0,0,0,0,0,0,0,0,0,0,0,0,0,0,0,0,0,0,0,0,0,0,0,0,0,0,0,0,0,0,0,0,0,0,0,0,0,0,0,0,0,0,0,0,0,0,0,0,0,0,0,0,0,0,0,0,0,0,0,0,0,0,0,0,0,0,0,0,0,0,0,0,0,0,0,0],"id":11,"left_children":[1,3,5,7,9,11,13,15,17,19,21,23,25,27,-1,29,31,33,35,37,39,41,43,45,47,-1,49,51,53,55,57,59,61,63,-1,65,67,69,71,-1,73,75,77,79,81,83,85,87,89,-1,-1,-1,91,-1,93,-1,-1,-1,-1,-1,-1,-1,-1,-1,-1,-1,-1,-1,-1,-1,-1,-1,-1,-1,-1,-1,-1,-1,-1,-1,-1,-1,-1,-1,-1,-1,-1,-1,-1,-1,-1,-1,-1,-1,-1],"loss_changes":[3.8944312E12,1.6633113E12,4.1383693E12,6.10754E11,1.2691918E12,7.1504626E11,8.499786E12,3.0823796E11,3.2133625E11,5.106164E11,6.5001305E11,4.3915044E11,9.496603E11,4.5744646E11,0E0,4.5936017E11,3.2874476E11,8.941357E10,3.237958E11,4.0477776E11,4.630501E11,2.9225202E11,3.4322688E11,3.282818E11,4.286335E11,0E0,3.9142687E10,1.3892965E11,1.4027509E11,1.14597626E11,1.454006E11,2.1219364E11,4.9849365E11,5.641758E10,0E0,1.6465697E11,1.1909989E11,8.007487E11,3.1456425E11,0E0,4.9587585E11,1.6992244E10,3.4493065E11,1.197531E11,4.125079E10,5.529287E11,3.5981076E11,1.6159787E11,2.987157E10,0E0,0E0,0E0,3.682606E8,0E0,2.2283354E10,0E0,0E0,0E0,0E0,0E0,0E0,0E0,0E0,0E0,0E0,0E0,0E0,0E0,0E0,0E0,0E0,0E0,0E0,0E0,0E0,0E0,0E0,0E0,0E0,0E0,0E0,0E0,0E0,0E0,0E0,0E0,0E0,0E0,0E0,0E0,0E0,0E0,0E0,0E0,0E0],"parents":[2147483647,0,0,1,1,2,2,3,3,4,4,5,5,6,6,7,7,8,8,9,9,10,10,11,11,12,12,13,13,15,15,16,16,17,17,18,18,19,19,20,20,21,21,22,22,23,23,24,24,26,26,27,27,28,28,29,29,30,30,31,31,32,32,33,33,35,35,36,36,37,37,38,38,40,40,41,41,42,42,43,43,44,44,45,45,46,46,47,47,48,48,52,52,54,54],"right_children":[2,4,6,8,10,12,14,16,18,20,22,24,26,28,-1,30,32,34,36,38,40,42,44,46,48,-1,50,52,54,56,58,60,62,64,-1,66,68,70,72,-1,74,76,78,80,82,84,86,88,90,-1,-1,-1,92,-1,94,-1,-1,-1,-1,-1,-1,-1,-1,-1,-1,-1,-1,-1,-1,-1,-1,-1,-1,-1,-1,-1,-1,-1,-1,-1,-1,-1,-1,-1,-1,-1,-1,-1,-1,-1,-1,-1,-1,-1,-1],"split_conditions":[6.888753E5,1E0,1E0,8.372093E-1,5E0,9.767442E-1,1.1721312E0,-3.31171E-1,1E0,1.1721312E0,1E0,1E0,-1.0245901E0,4.1991857E-1,2.5045362E5,1E0,3.2E5,4.043736E-1,1E0,-4.651163E-1,8E0,4E0,6E0,2E0,1E0,-9.720834E3,1E0,-4.1860464E-1,1E0,-1.6511627E0,1E0,1E0,1E0,2E0,1.978596E4,4E0,2.2283373E0,5E0,-6.5707374E-1,-5.165216E4,3.32E5,-1.3023256E0,4.4191666E5,1E0,1.6666667E-1,3E0,1E0,1E0,-1.6511627E0,4.2447125E4,8.386766E4,3.443082E4,1.1627907E-1,8.065425E4,-9.549235E-1,7.27375E2,-3.120091E4,-8.1820337E3,-2.2241011E2,-8.266908E3,-2.8438484E3,-2.1580225E3,1.4226247E4,-2.1652691E4,-1.0323317E-1,5.894069E3,4.9114023E4,1.0934386E4,-2.5190963E4,2.9297748E4,2.339823E3,-5.4097163E3,1.2608231E3,2.717187E3,1.7869965E4,-6.245146E3,1.1517796E4,2.4708914E4,5.915782E4,2.6736129E4,-7.559175E2,4.916E2,-2.2613332E4,-1.2344809E4,3.1334092E4,-1.0660507E3,1.6568434E4,-1.4750552E4,2.3106693E4,8.2190805E4,4.1201855E4,-6.7708003E3,-3.363239E3,1.774582E4,4.267834E4],"split_indices":[63,40,60,2,7,2,6,5,52,6,37,53,6,18,0,11,63,18,8,2,12,16,11,16,54,0,4,2,52,2,58,25,22,17,0,16,6,17,19,0,63,2,63,36,5,12,9,10,2,0,0,0,2,0,5,0,0,0,0,0,0,0,0,0,0,0,0,0,0,0,0,0,0,0,0,0,0,0,0,0,0,0,0,0,0,0,0,0,0,0,0,0,0,0,0],"split_type":[0,0,0,0,0,0,0,0,0,0,0,0,0,0,0,0,0,0,0,0,0,0,0,0,0,0,0,0,0,0,0,0,0,0,0,0,0,0,0,0,0,0,0,0,0,0,0,0,0,0,0,0,0,0,0,0,0,0,0,0,0,0,0,0,0,0,0,0,0,0,0,0,0,0,0,0,0,0,0,0,0,0,0,0,0,0,0,0,0,0,0,0,0,0,0],"sum_hessian":[5.229E3,4.831E3,3.98E2,2.836E3,1.995E3,3.53E2,4.5E1,2.624E3,2.12E2,1.887E3,1.08E2,3.3E2,2.3E1,3.7E1,8E0,8.38E2,1.786E3,1.41E2,7.1E1,1.536E3,3.51E2,6.3E1,4.5E1,2.95E2,3.5E1,8E0,1.5E1,1.6E1,2.1E1,4.5E1,7.93E2,1.157E3,6.29E2,1.33E2,8E0,1.9E1,5.2E1,3.15E2,1.221E3,4E0,3.47E2,1.2E1,5.1E1,2.9E1,1.6E1,5.9E1,2.36E2,2.5E1,1E1,5E0,1E1,4E0,1.2E1,5E0,1.6E1,5E0,4E1,6.87E2,1.06E2,5.88E2,5.69E2,5.44E2,8.5E1,4E0,1.29E2,5E0,1.4E1,4.9E1,3E0,5.2E1,2.63E2,4.43E2,7.78E2,1.86E2,1.61E2,2E0,1E1,2.4E1,2.7E1,2E1,9E0,4E0,1.2E1,1.5E1,4.4E1,1.74E2,6.2E1,5E0,2E1,4E0,6E0,4E0,8E0,4E0,1.2E1],"tree_param":{"num_deleted":"0","num_feature":"64","num_nodes":"95","size_leaf_vector":"1"}},{"base_weights":[1.8352186E3,-3.1105173E3,1.0467827E5,-6.03016E3,9.115628E4,6.668262E4,5.4311806E5,-1.7047705E4,9.822386E3,7.898558E4,1.0312815E5,5.7940305E4,7.4349836E4,2.225017E5,2.4014067E5,-2.0289371E4,2.2681602E4,5.9744385E3,6.091004E4,-4.403787E4,9.434751E4,4.531805E4,2.0377169E5,6.7211875E4,2.4414834E4,-2.4104254E4,1.2237566E4,-1.8703854E3,7.391675E4,-3.9914458E3,2.5063674E4,4.966146E4,8.562684E4,-2.559185E4,4.4776598E4,7.071522E4,1.7155238E5,3.1246955E4,1.2448173E5,4.3515E3,2.4122061E5,-5.4213657E3,4.6183447E3,6.849818E4,-1.7000074E1,-9.322521E3,2.4008755E3,1.0585862E4,4.5990652E4,-5.163657E3,2.0891921E3,2.4865134E3,1.0522382E4,2.4975286E3,1.9592959E4,1.40442295E4,-9.16875E2,1.1601992E4,6.111904E4,6.006448E3,3.9731023E4,-1.6480709E4,9.519675E3,1.6096513E4,4.364079E4,7.8707437E3,5.0744324E4],"categories":[],"categories_nodes":[],"categories_segments":[],"categories_sizes":[],"default_left":[0,0,0,0,0,0,0,0,0,0,0,0,0,0,0,0,0,0,0,0,0,0,0,0,0,0,0,0,0,0,0,0,0,0,0,0,0,0,0,0,0,0,0,0,0,0,0,0,0,0,0,0,0,0,0,0,0,0,0,0,0,0,0,0,0,0,0],"id":12,"left_children":[1,3,5,7,9,11,13,15,17,19,-1,21,-1,23,-1,25,27,29,31,33,35,37,39,-1,-1,41,43,45,47,49,51,53,-1,-1,55,57,59,61,63,-1,65,-1,-1,-1,-1,-1,-1,-1,-1,-1,-1,-1,-1,-1,-1,-1,-1,-1,-1,-1,-1,-1,-1,-1,-1,-1,-1],"loss_changes":[2.6604848E12,1.3741995E12,3.9618968E12,8.458524E11,7.3421344E11,5.705319E11,3.7386616E12,3.6841082E11,3.900491E11,2.8196694E11,0E0,3.9020193E11,0E0,1.1863622E11,0E0,3.2813154E11,2.7185001E11,3.5166562E11,5.5291255E11,1.32437926E11,2.268817E11,2.2000812E11,1.1062759E11,0E0,0E0,3.357687E11,1.1313691E12,9.181535E10,2.1706523E11,3.8314407E11,2.1995556E11,2.4298088E11,0E0,0E0,1.1625628E10,2.8666184E11,1.09101515E11,3.2355792E11,1.0614941E11,0E0,2.5344672E10,0E0,0E0,0E0,0E0,0E0,0E0,0E0,0E0,0E0,0E0,0E0,0E0,0E0,0E0,0E0,0E0,0E0,0E0,0E0,0E0,0E0,0E0,0E0,0E0,0E0,0E0],"parents":[2147483647,0,0,1,1,2,2,3,3,4,4,5,5,6,6,7,7,8,8,9,9,11,11,13,13,15,15,16,16,17,17,18,18,19,19,20,20,21,21,22,22,25,25,26,26,27,27,28,28,29,29,30,30,31,31,34,34,35,35,36,36,37,37,38,38,40,40],"right_children":[2,4,6,8,10,12,14,16,18,20,-1,22,-1,24,-1,26,28,30,32,34,36,38,40,-1,-1,42,44,46,48,50,52,54,-1,-1,56,58,60,62,64,-1,66,-1,-1,-1,-1,-1,-1,-1,-1,-1,-1,-1,-1,-1,-1,-1,-1,-1,-1,-1,-1,-1,-1,-1,-1,-1,-1],"split_conditions":[7.235E5,5E0,1E0,1E0,4E0,4.555035E0,8.1395346E-1,8.372093E-1,1E0,-1.6511627E0,1.0312815E5,2E0,7.4349836E4,3.9534885E-1,2.4014067E5,1E0,1E0,1E0,1E0,3.1018736E0,2.4E1,3E0,2E0,6.7211875E4,2.4414834E4,1E0,1E0,1E0,1E0,-3.7984535E-1,1E0,1E0,8.562684E4,-2.559185E4,-1.744186E0,9E0,-1.0697675E0,-1.6511627E0,1E0,4.3515E3,-3.758782E-1,-5.4213657E3,4.6183447E3,6.849818E4,-1.7000074E1,-9.322521E3,2.4008755E3,1.0585862E4,4.5990652E4,-5.163657E3,2.0891921E3,2.4865134E3,1.0522382E4,2.4975286E3,1.9592959E4,1.40442295E4,-9.16875E2,1.1601992E4,6.111904E4,6.006448E3,3.9731023E4,-1.6480709E4,9.519675E3,1.6096513E4,4.364079E4,7.8707437E3,5.0744324E4],"split_indices":[63,7,60,40,10,6,2,2,60,2,0,9,0,2,0,50,52,61,31,6,17,10,7,0,0,37,11,2,44,19,28,52,0,0,2,7,2,2,41,0,6,0,0,0,0,0,0,0,0,0,0,0,0,0,0,0,0,0,0,0,0,0,0,0,0,0,0],"split_type":[0,0,0,0,0,0,0,0,0,0,0,0,0,0,0,0,0,0,0,0,0,0,0,0,0,0,0,0,0,0,0,0,0,0,0,0,0,0,0,0,0,0,0,0,0,0,0,0,0,0,0,0,0,0,0,0,0,0,0,0,0,0,0,0,0,0,0],"sum_hessian":[5.229E3,4.99E3,2.39E2,4.841E3,1.49E2,2.21E2,1.8E1,2.856E3,1.985E3,1.46E2,3E0,2.16E2,5E0,1.3E1,5E0,2.641E3,2.15E2,1.847E3,1.38E2,1.6E1,1.3E2,2E2,1.6E1,5E0,8E0,2.364E3,2.77E2,1.46E2,6.9E1,1.214E3,6.33E2,1.35E2,3E0,8E0,8E0,1.01E2,2.9E1,1.71E2,2.9E1,3E0,1.3E1,2.223E3,1.41E2,9E0,2.68E2,3.4E1,1.12E2,6.2E1,7E0,4.83E2,7.31E2,4.35E2,1.98E2,7.7E1,5.8E1,5E0,3E0,9.7E1,4E0,5E0,2.4E1,2.1E1,1.5E2,2.1E1,8E0,1E0,1.2E1],"tree_param":{"num_deleted":"0","num_feature":"64","num_nodes":"67","size_leaf_vector":"1"}},{"base_weights":[1.6528741E3,-8.119963E3,3.8951914E4,-1.2049455E4,3.2004041E4,2.6870744E4,1.6047564E5,-3.6889996E4,-8.592417E3,-8.89937E3,5.2909453E4,2.079088E4,1.2235349E5,7.427976E4,4.729901E5,-4.336863E4,3.4324176E4,-1.9991135E4,5.398868E2,-1.4942882E4,3.5832695E4,3.1278146E4,1.01523375E5,1.4152178E4,1.2426788E5,2.331814E5,7.194263E4,1.17706164E5,-4.1610465E4,8.618549E5,1.6739214E5,-5.7809344E4,-2.9653037E4,3.2138172E4,-3.4701572E3,-2.3263371E4,2.0428625E4,-2.9138538E3,6.408303E4,1.04166455E4,-3.1311867E4,4.018215E4,-1.1910056E4,4.852668E4,1.5184839E5,2.0332566E4,-5.5144562E4,1.1549602E5,6.851217E4,3.5977215E4,6.1958207E4,1.0993746E5,1.5175226E4,1.69445E5,1.3517065E4,-2.2235354E4,6.0829062E3,2.0011717E5,8.765895E4,6.56969E3,4.4707902E4,-1.2392836E4,7.911738E3,-7.181337E3,2.511457E3,1.201687E4,-3.6006228E3,-1.1864962E4,-4.0608152E3,-7.9564766E3,8.244016E3,-3.165053E2,-3.1324207E4,8.743E3,4.0263797E4,1.1882554E2,1.0801253E4,-4.4542466E3,-1.7569777E4,1.053906E4,-2.5292454E3,-1.06706045E4,2.2958157E3,1.4331667E4,-2.9530842E3,3.9201574E4,1.7153717E4,1.458301E3,1.1127207E4,4.1020786E3,-2.806067E4,2.795805E4,9.083188E3,2.634685E4,1.28137705E4,-4.849988E3,1.1458966E4,2.0573926E4,5.791231E4,-4.6791772E3,2.5787021E4,-3.7968364E3,1.1000101E4],"categories":[],"categories_nodes":[],"categories_segments":[],"categories_sizes":[],"default_left":[0,0,0,0,0,0,0,0,0,0,0,0,0,0,0,0,0,0,0,0,0,0,0,0,0,0,0,0,0,0,0,0,0,0,0,0,0,0,0,0,0,0,0,0,0,0,0,0,0,0,0,0,0,0,0,0,0,0,0,0,0,0,0,0,0,0,0,0,0,0,0,0,0,0,0,0,0,0,0,0,0,0,0,0,0,0,0,0,0,0,0,0,0,0,0,0,0,0,0,0,0,0,0],"id":13,"left_children":[1,3,5,7,9,11,13,15,17,19,21,23,25,27,29,31,33,35,37,39,-1,41,43,45,47,49,51,53,55,57,59,61,63,-1,65,67,69,71,73,75,77,79,81,83,85,87,89,-1,91,-1,-1,93,95,97,99,-1,101,-1,-1,-1,-1,-1,-1,-1,-1,-1,-1,-1,-1,-1,-1,-1,-1,-1,-1,-1,-1,-1,-1,-1,-1,-1,-1,-1,-1,-1,-1,-1,-1,-1,-1,-1,-1,-1,-1,-1,-1,-1,-1,-1,-1,-1,-1],"loss_changes":[1.9067425E12,6.539151E11,1.5900976E12,3.2394592E11,3.1685886E11,5.715924E11,2.6047367E12,2.1418043E11,3.4519495E11,1.4588377E11,2.5446226E11,6.3779465E11,3.128532E11,3.9744812E11,2.3512943E12,8.206634E10,1.8681946E11,1.9556316E11,4.0443488E11,5.1384664E10,0E0,6.623622E10,1.9266083E11,3.7629526E11,1.375509E12,1.776576E10,8.892011E10,3.0497505E11,7.3669E10,9.029655E10,9.086262E10,8.538371E10,5.8259964E10,0E0,2.9714387E10,1.4446343E11,1.4059789E11,3.5745333E11,2.567458E11,2.0947743E10,3.637829E10,9.453542E10,2.9691896E10,5.6692007E10,9.40745E10,3.70212E11,4.667509E11,0E0,7.761029E10,0E0,0E0,1.6554656E10,3.1279696E10,2.7409147E11,8.822496E10,0E0,1.821124E10,0E0,0E0,0E0,0E0,0E0,0E0,0E0,0E0,0E0,0E0,0E0,0E0,0E0,0E0,0E0,0E0,0E0,0E0,0E0,0E0,0E0,0E0,0E0,0E0,0E0,0E0,0E0,0E0,0E0,0E0,0E0,0E0,0E0,0E0,0E0,0E0,0E0,0E0,0E0,0E0,0E0,0E0,0E0,0E0,0E0,0E0],"parents":[2147483647,0,0,1,1,2,2,3,3,4,4,5,5,6,6,7,7,8,8,9,9,10,10,11,11,12,12,13,13,14,14,15,15,16,16,17,17,18,18,19,19,21,21,22,22,23,23,24,24,25,25,26,26,27,27,28,28,29,29,30,30,31,31,32,32,34,34,35,35,36,36,37,37,38,38,39,39,40,40,41,41,42,42,43,43,44,44,45,45,46,46,48,48,51,51,52,52,53,53,54,54,56,56],"right_children":[2,4,6,8,10,12,14,16,18,20,22,24,26,28,30,32,34,36,38,40,-1,42,44,46,48,50,52,54,56,58,60,62,64,-1,66,68,70,72,74,76,78,80,82,84,86,88,90,-1,92,-1,-1,94,96,98,100,-1,102,-1,-1,-1,-1,-1,-1,-1,-1,-1,-1,-1,-1,-1,-1,-1,-1,-1,-1,-1,-1,-1,-1,-1,-1,-1,-1,-1,-1,-1,-1,-1,-1,-1,-1,-1,-1,-1,-1,-1,-1,-1,-1,-1,-1,-1,-1],"split_conditions":[5.782493E5,8.372093E-1,1E0,-7.1428573E-1,4E0,3.2447307E0,2.055035E0,1E0,2.94E5,1.1408849E0,1E0,1E0,2E0,1E0,3E0,1E0,1E0,1E0,1E0,-6.088993E-2,3.5832695E4,1E0,1E0,1E0,9E0,2.7906978E-1,1E0,1E0,3E0,1E0,1E0,3.488372E-1,3.617853E-1,3.2138172E4,-4.8552895E-1,-1.0143048E0,2.2038309E-2,5.456296E5,4.7E5,1.1627907E0,1E0,1.1E1,4.531616E-1,1.1162791E0,9E0,1E0,0E0,1.1549602E5,3.992016E-3,3.5977215E4,6.1958207E4,1E0,9.564038E0,1E0,1E0,-2.2235354E4,4.1843897E-1,2.0011717E5,8.765895E4,6.56969E3,4.4707902E4,-1.2392836E4,7.911738E3,-7.181337E3,2.511457E3,1.201687E4,-3.6006228E3,-1.1864962E4,-4.0608152E3,-7.9564766E3,8.244016E3,-3.165053E2,-3.1324207E4,8.743E3,4.0263797E4,1.1882554E2,1.0801253E4,-4.4542466E3,-1.7569777E4,1.053906E4,-2.5292454E3,-1.06706045E4,2.2958157E3,1.4331667E4,-2.9530842E3,3.9201574E4,1.7153717E4,1.458301E3,1.1127207E4,4.1020786E3,-2.806067E4,2.795805E4,9.083188E3,2.634685E4,1.28137705E4,-4.849988E3,1.1458966E4,2.0573926E4,5.791231E4,-4.6791772E3,2.5787021E4,-3.7968364E3,1.1000101E4],"split_indices":[63,2,60,6,16,6,6,37,63,5,52,22,10,41,9,25,25,58,43,6,0,35,45,24,12,2,25,32,7,0,4,2,19,0,5,5,19,63,63,2,37,12,6,2,17,28,5,0,5,0,0,22,5,55,37,0,18,0,0,0,0,0,0,0,0,0,0,0,0,0,0,0,0,0,0,0,0,0,0,0,0,0,0,0,0,0,0,0,0,0,0,0,0,0,0,0,0,0,0,0,0,0,0],"split_type":[0,0,0,0,0,0,0,0,0,0,0,0,0,0,0,0,0,0,0,0,0,0,0,0,0,0,0,0,0,0,0,0,0,0,0,0,0,0,0,0,0,0,0,0,0,0,0,0,0,0,0,0,0,0,0,0,0,0,0,0,0,0,0,0,0,0,0,0,0,0,0,0,0,0,0,0,0,0,0,0,0,0,0,0,0,0,0,0,0,0,0,0,0,0,0,0,0,0,0,0,0,0,0],"sum_hessian":[5.229E3,4.144E3,1.085E3,3.775E3,3.69E2,9.88E2,9.7E1,4.6E2,3.315E3,1.25E2,2.44E2,9.3E2,5.8E1,7.7E1,2E1,4.22E2,3.8E1,1.474E3,1.841E3,1.22E2,3E0,1.7E2,7.4E1,8.75E2,5.5E1,1.7E1,4.1E1,5.6E1,2.1E1,8E0,1.2E1,2.04E2,2.18E2,8E0,3E1,1.364E3,1.1E2,1.747E3,9.4E1,4.8E1,7.4E1,1.41E2,2.9E1,3.7E1,3.7E1,8.04E2,7.1E1,5E0,5E1,1.2E1,5E0,2.4E1,1.7E1,3.7E1,1.9E1,8E0,1.3E1,5E0,3E0,4E0,8E0,1.96E2,8E0,1.9E2,2.8E1,5E0,2.5E1,1.02E2,1.262E3,2.8E1,8.2E1,1.733E3,1.4E1,8.3E1,1.1E1,4E1,8E0,6.5E1,9E0,1.14E2,2.7E1,1E1,1.9E1,2.7E1,1E1,2.1E1,1.6E1,5.88E2,2.16E2,3.8E1,3.3E1,1.1E1,3.9E1,1.5E1,9E0,9E0,8E0,2.5E1,1.2E1,1.5E1,4E0,9E0,4E0],"tree_param":{"num_deleted":"0","num_feature":"64","num_nodes":"103","size_leaf_vector":"1"}},{"base_weights":[1.4817065E3,-3.0840667E3,5.6770766E4,-1.2383282E4,1.1014007E4,3.615028E4,2.142247E5,-1.8362502E4,3.424811E3,3.3535205E3,5.9294363E4,2.3430441E4,9.935234E4,1.18326984E5,1.6676434E5,-2.0439686E4,2.6470186E4,-1.5969413E4,1.9169385E4,2.5634455E4,-6.4468154E3,4.508408E4,1.3094967E5,-3.1436525E4,4.1532348E4,6.594273E4,7.191678E4,7.538669E3,1.8892995E5,-5.1377105E4,-1.6955E4,1.119592E5,8.820888E3,-5.472492E3,-4.728274E4,1.40620205E4,8.204363E4,1.6292319E4,1.3141842E5,-3.3977977E4,-9.109557E2,3.1397521E4,1.1943669E5,7.394076E4,2.1379031E5,-6.15291E4,6.560311E4,2.6981606E5,3.3976965E4,5.1631836E4,4.7643906E4,-3.1797701E4,2.16611E4,6.402085E4,1.0837122E5,-1.2838362E4,1.2670124E4,9.624669E4,-3.7190547E3,2.1742834E3,2.5124756E4,-3.296416E3,7.5977275E3,2.7178635E3,-7.111238E3,-2.0185459E4,-4.782531E3,1.0528276E4,1.4854391E3,6.163522E3,2.9872682E4,4.974252E3,-4.187649E3,1.0713103E4,4.5584258E4,1.6525525E4,-7.6322383E3,6.2631445E3,-1.6960735E3,4.6228047E3,4.845662E4,1.0458003E4,3.6701496E4,-1.0648796E4,1.9674959E4,2.1991158E4,4.957834E4,-1.6819129E4,-8.513745E3,1.6953994E4,7.4034727E3,3.3279793E4,7.044784E4,7.7933433E3,-2.9598084E4,-1.2676128E4,1.5547377E4,-2.08825E3,-8.0258643E3,9.24008E3,2.4789365E4],"categories":[],"categories_nodes":[],"categories_segments":[],"categories_sizes":[],"default_left":[0,0,0,0,0,0,0,0,0,0,0,0,0,0,0,0,0,0,0,0,0,0,0,0,0,0,0,0,0,0,0,0,0,0,0,0,0,0,0,0,0,0,0,0,0,0,0,0,0,0,0,0,0,0,0,0,0,0,0,0,0,0,0,0,0,0,0,0,0,0,0,0,0,0,0,0,0,0,0,0,0,0,0,0,0,0,0,0,0,0,0,0,0,0,0,0,0,0,0,0,0],"id":14,"left_children":[1,3,5,7,9,11,13,15,17,19,21,23,25,27,-1,29,31,33,35,37,39,41,43,45,47,-1,49,51,53,55,57,59,61,63,65,67,69,71,73,75,77,79,81,83,85,87,89,91,93,-1,95,97,-1,-1,99,-1,-1,-1,-1,-1,-1,-1,-1,-1,-1,-1,-1,-1,-1,-1,-1,-1,-1,-1,-1,-1,-1,-1,-1,-1,-1,-1,-1,-1,-1,-1,-1,-1,-1,-1,-1,-1,-1,-1,-1,-1,-1,-1,-1,-1,-1],"loss_changes":[1.3204222E12,6.336165E11,1.2877195E12,2.753053E11,7.102849E11,2.8225982E11,2.634561E12,1.9731566E11,2.4458917E11,3.6242555E11,2.6189398E11,2.952918E11,3.4917345E11,3.192771E11,0E0,2.1689945E11,1.408416E11,1.1774222E11,1.4078211E11,4.9890063E11,1.7569622E11,2.2114648E11,1.872663E11,2.201293E11,3.754565E11,0E0,2.3181479E11,7.082849E10,2.2949075E11,3.0398762E11,1.4937382E12,2.0735443E10,5.8930553E10,1.5531459E11,1.1041753E11,1.04555635E11,1.0919826E11,1.4968E11,2.9582544E11,9.729594E10,2.34689E11,3.2281153E11,1.3667716E11,8.914407E10,3.2938197E10,2.0808745E10,6.724215E9,1.05549005E9,2.0279663E11,0E0,1.686389E11,1.8941389E9,0E0,0E0,1.0735518E10,0E0,0E0,0E0,0E0,0E0,0E0,0E0,0E0,0E0,0E0,0E0,0E0,0E0,0E0,0E0,0E0,0E0,0E0,0E0,0E0,0E0,0E0,0E0,0E0,0E0,0E0,0E0,0E0,0E0,0E0,0E0,0E0,0E0,0E0,0E0,0E0,0E0,0E0,0E0,0E0,0E0,0E0,0E0,0E0,0E0,0E0],"parents":[2147483647,0,0,1,1,2,2,3,3,4,4,5,5,6,6,7,7,8,8,9,9,10,10,11,11,12,12,13,13,15,15,16,16,17,17,18,18,19,19,20,20,21,21,22,22,23,23,24,24,26,26,27,27,28,28,29,29,30,30,31,31,32,32,33,33,34,34,35,35,36,36,37,37,38,38,39,39,40,40,41,41,42,42,43,43,44,44,45,45,46,46,47,47,48,48,50,50,51,51,54,54],"right_children":[2,4,6,8,10,12,14,16,18,20,22,24,26,28,-1,30,32,34,36,38,40,42,44,46,48,-1,50,52,54,56,58,60,62,64,66,68,70,72,74,76,78,80,82,84,86,88,90,92,94,-1,96,98,-1,-1,100,-1,-1,-1,-1,-1,-1,-1,-1,-1,-1,-1,-1,-1,-1,-1,-1,-1,-1,-1,-1,-1,-1,-1,-1,-1,-1,-1,-1,-1,-1,-1,-1,-1,-1,-1,-1,-1,-1,-1,-1,-1,-1,-1,-1,-1,-1],"split_conditions":[6.888753E5,2E0,1E0,1E0,1.9562541E0,5E0,1E0,6E0,1E0,-1.0195509E0,1E0,-6.6799736E-1,-9.016966E-1,4.1991857E-1,1.6676434E5,-1.3793219E0,-5.381015E-3,2.4E1,3.2E1,-1.0253739E0,-6.016504E-1,1E0,1E0,1E0,-1.0242936E-1,6.594273E4,1E0,1E0,1E0,1E0,-1.3787594E0,-5.006653E-1,6.132031E-1,3.992016E-3,-7.7528274E-1,8E0,1E0,1E0,1E0,-8.468064E-1,-4.213888E-1,3.5430473E1,1E0,1E0,5.782493E5,1E0,1E0,3.992016E-3,1E0,5.1631836E4,2E0,1E0,2.16611E4,6.402085E4,-9.549235E-1,-1.2838362E4,1.2670124E4,9.624669E4,-3.7190547E3,2.1742834E3,2.5124756E4,-3.296416E3,7.5977275E3,2.7178635E3,-7.111238E3,-2.0185459E4,-4.782531E3,1.0528276E4,1.4854391E3,6.163522E3,2.9872682E4,4.974252E3,-4.187649E3,1.0713103E4,4.5584258E4,1.6525525E4,-7.6322383E3,6.2631445E3,-1.6960735E3,4.6228047E3,4.845662E4,1.0458003E4,3.6701496E4,-1.0648796E4,1.9674959E4,2.1991158E4,4.957834E4,-1.6819129E4,-8.513745E3,1.6953994E4,7.4034727E3,3.3279793E4,7.044784E4,7.7933433E3,-2.9598084E4,-1.2676128E4,1.5547377E4,-2.08825E3,-8.0258643E3,9.24008E3,2.4789365E4],"split_indices":[63,9,60,45,5,11,47,11,34,18,56,5,5,18,0,18,18,17,17,18,18,43,60,42,18,0,1,37,52,57,18,5,18,5,5,17,40,4,4,5,18,5,21,17,63,34,8,5,31,0,10,4,0,0,5,0,0,0,0,0,0,0,0,0,0,0,0,0,0,0,0,0,0,0,0,0,0,0,0,0,0,0,0,0,0,0,0,0,0,0,0,0,0,0,0,0,0,0,0,0,0],"split_type":[0,0,0,0,0,0,0,0,0,0,0,0,0,0,0,0,0,0,0,0,0,0,0,0,0,0,0,0,0,0,0,0,0,0,0,0,0,0,0,0,0,0,0,0,0,0,0,0,0,0,0,0,0,0,0,0,0,0,0,0,0,0,0,0,0,0,0,0,0,0,0,0,0,0,0,0,0,0,0,0,0,0,0,0,0,0,0,0,0,0,0,0,0,0,0,0,0,0,0,0,0],"sum_hessian":[5.229E3,4.831E3,3.98E2,2.911E3,1.92E3,3.53E2,4.5E1,2.112E3,7.99E2,1.658E3,2.62E2,2.95E2,5.8E1,4E1,5E0,2.019E3,9.3E1,3.58E2,4.41E2,5.06E2,1.152E3,2.2E2,4.2E1,7.3E1,2.22E2,5E0,5.3E1,1.6E1,2.4E1,2.03E2,1.816E3,1.5E1,7.8E1,2.69E2,8.9E1,4.09E2,3.2E1,4.66E2,4E1,1.92E2,9.6E2,1.87E2,3.3E1,2.6E1,1.6E1,5.6E1,1.7E1,6E0,2.16E2,5E0,4.8E1,1.2E1,4E0,8E0,1.6E1,1.83E2,2E1,5E0,1.811E3,2E0,1.3E1,4.2E1,3.6E1,1.65E2,1.04E2,2.6E1,6.3E1,5.9E1,3.5E2,1.9E1,1.3E1,3.79E2,8.7E1,2.3E1,1.7E1,6E0,1.86E2,1.82E2,7.78E2,1.81E2,6E0,1.7E1,1.6E1,4E0,2.2E1,5E0,1.1E1,2.4E1,3.2E1,9E0,8E0,4E0,2E0,2.11E2,5E0,1E1,3.8E1,4E0,8E0,4E0,1.2E1],"tree_param":{"num_deleted":"0","num_feature":"64","num_nodes":"101","size_leaf_vector":"1"}},{"base_weights":[1.3520553E3,-1.3700017E3,6.64287E4,-2.6429407E3,8.741438E4,2.2919508E4,2.507698E5,-5.0024375E3,3.2335807E4,4.6049805E3,1.7739505E5,-4.506082E2,9.946791E4,1.6747662E5,1.3897034E5,-1.2056311E4,4.2216475E3,7.967039E3,8.989669E4,3.54331E4,-3.5561117E4,5.82777E4,1.10207375E5,-3.6171254E4,7.971403E4,1.2935268E5,8.921449E3,1.9325244E5,1.4308133E4,-1.6137749E4,4.6480127E3,2.3174553E4,-7.0453105E3,1.5528544E4,-4.93415E4,6.899951E4,5.5454074E4,5.0415234E4,2.9124688E3,-1.1032093E4,4.5018804E3,1.3010303E5,6.4305E3,-6.3727066E4,5.440302E4,5.7584746E4,3.984081E4,3.827912E4,8.335964E4,-1.9151115E4,9.28775E3,4.262344E4,1.26448E4,-3.4876816E3,4.528937E3,-3.456427E3,3.2825454E3,3.802054E3,7.278435E4,-1.6900297E3,3.7895645E4,1.7328391E3,1.0951792E4,-1.3619564E4,1.4168547E4,2.223664E4,8.286463E3,5.70164E3,1.1157955E4,-1.8715312E3,2.429215E3,2.0507139E4,3.62542E4,-1.7581334E4,1.4150697E3,2.9578396E4,-4.3392837E3,-4.11715E3,1.3599872E4,8.343527E3,2.3333135E4,-1.0033194E4,-1.1241958E3],"categories":[],"categories_nodes":[],"categories_segments":[],"categories_sizes":[],"default_left":[0,0,0,0,0,0,0,0,0,0,0,0,0,0,0,0,0,0,0,0,0,0,0,0,0,0,0,0,0,0,0,0,0,0,0,0,0,0,0,0,0,0,0,0,0,0,0,0,0,0,0,0,0,0,0,0,0,0,0,0,0,0,0,0,0,0,0,0,0,0,0,0,0,0,0,0,0,0,0,0,0,0,0],"id":15,"left_children":[1,3,5,7,9,11,13,15,17,19,21,23,25,27,-1,29,31,33,35,37,39,-1,41,43,45,47,49,51,-1,53,55,57,59,61,63,65,-1,67,69,-1,-1,71,-1,73,75,77,-1,-1,79,81,-1,-1,-1,-1,-1,-1,-1,-1,-1,-1,-1,-1,-1,-1,-1,-1,-1,-1,-1,-1,-1,-1,-1,-1,-1,-1,-1,-1,-1,-1,-1,-1,-1],"loss_changes":[9.265455E11,5.676899E11,1.6785644E12,4.0877883E11,5.282215E11,3.0595442E11,1.3631881E12,3.0188988E11,4.3832505E11,4.8313364E10,2.2829138E11,3.8086964E11,1.07084415E11,7.2723595E10,0E0,1.7931407E11,4.2959546E11,9.653407E10,3.4501755E11,1.0572192E10,2.0590074E10,0E0,3.1534776E10,2.3308494E11,9.694224E10,6.965163E10,1.2474629E10,5.6266457E10,0E0,1.0698044E11,1.33670625E11,1.057308E12,3.500187E11,5.2306645E10,6.3433814E10,9.423877E10,0E0,1.7563648E8,1.02003885E9,0E0,0E0,6.803423E9,0E0,1.2217218E11,1.5972681E11,3.0707982E10,0E0,0E0,2.1484659E10,2.6554647E9,0E0,0E0,0E0,0E0,0E0,0E0,0E0,0E0,0E0,0E0,0E0,0E0,0E0,0E0,0E0,0E0,0E0,0E0,0E0,0E0,0E0,0E0,0E0,0E0,0E0,0E0,0E0,0E0,0E0,0E0,0E0,0E0,0E0],"parents":[2147483647,0,0,1,1,2,2,3,3,4,4,5,5,6,6,7,7,8,8,9,9,10,10,11,11,12,12,13,13,15,15,16,16,17,17,18,18,19,19,20,20,22,22,23,23,24,24,25,25,26,26,27,27,29,29,30,30,31,31,32,32,33,33,34,34,35,35,37,37,38,38,41,41,43,43,44,44,45,45,48,48,49,49],"right_children":[2,4,6,8,10,12,14,16,18,20,22,24,26,28,-1,30,32,34,36,38,40,-1,42,44,46,48,50,52,-1,54,56,58,60,62,64,66,-1,68,70,-1,-1,72,-1,74,76,78,-1,-1,80,82,-1,-1,-1,-1,-1,-1,-1,-1,-1,-1,-1,-1,-1,-1,-1,-1,-1,-1,-1,-1,-1,-1,-1,-1,-1,-1,-1,-1,-1,-1,-1,-1,-1],"split_conditions":[6.7776185E-1,4.0644026E0,1E0,1E0,1.3765801E0,3E0,8.1395346E-1,3.32E5,1E0,-1.2093023E0,1E0,1E0,1E0,3.9534885E-1,1.3897034E5,1E0,-2.3255815E-1,1E0,1E0,1E0,1.0930233E0,5.82777E4,2.0504824E1,1E0,8.1395346E-1,-1.2325581E0,3.3419204E0,2E0,1.4308133E4,1E0,8.642798E-5,6.158683E0,5.6297573E1,1E0,1.1395348E0,3.1E5,5.5454074E4,1E0,-1.6511627E0,-1.1032093E4,4.5018804E3,2E0,6.4305E3,4E0,-9.1100705E-1,-2.2325583E0,3.984081E4,3.827912E4,1.6241218E0,-1.7674419E0,9.28775E3,4.262344E4,1.26448E4,-3.4876816E3,4.528937E3,-3.456427E3,3.2825454E3,3.802054E3,7.278435E4,-1.6900297E3,3.7895645E4,1.7328391E3,1.0951792E4,-1.3619564E4,1.4168547E4,2.223664E4,8.286463E3,5.70164E3,1.1157955E4,-1.8715312E3,2.429215E3,2.0507139E4,3.62542E4,-1.7581334E4,1.4150697E3,2.9578396E4,-4.3392837E3,-4.11715E3,1.3599872E4,8.343527E3,2.3333135E4,-1.0033194E4,-1.1241958E3],"split_indices":[18,6,36,2,5,10,2,63,45,2,27,42,32,2,0,32,2,32,44,50,2,0,5,29,2,2,6,4,0,44,18,5,5,46,2,63,0,4,2,0,0,4,0,16,6,2,0,0,6,2,0,0,0,0,0,0,0,0,0,0,0,0,0,0,0,0,0,0,0,0,0,0,0,0,0,0,0,0,0,0,0,0,0],"split_type":[0,0,0,0,0,0,0,0,0,0,0,0,0,0,0,0,0,0,0,0,0,0,0,0,0,0,0,0,0,0,0,0,0,0,0,0,0,0,0,0,0,0,0,0,0,0,0,0,0,0,0,0,0,0,0,0,0,0,0,0,0,0,0,0,0,0,0,0,0,0,0,0,0,0,0,0,0,0,0,0,0,0,0],"sum_hessian":[5.229E3,5.02E3,2.09E2,4.95E3,7E1,1.7E2,3.9E1,4.638E3,3.12E2,3.7E1,3.3E1,1.31E2,3.9E1,3.4E1,5E0,2.628E3,2.01E3,2.2E2,9.2E1,2.1E1,1.6E1,1.1E1,2.2E1,9.1E1,4E1,2.9E1,1E1,2.6E1,8E0,2.112E3,5.16E2,7.49E2,1.261E3,1.95E2,2.5E1,8.4E1,8E0,1.4E1,7E0,1.2E1,4E0,1.7E1,5E0,7E1,2.1E1,3.5E1,5E0,1.1E1,1.8E1,6E0,4E0,2.2E1,4E0,2.044E3,6.8E1,1.8E2,3.36E2,7.41E2,8E0,1.253E3,8E0,1.67E2,2.8E1,2.2E1,3E0,3.2E1,5.2E1,4E0,1E1,3E0,4E0,1.3E1,4E0,5.2E1,1.8E1,9E0,1.2E1,4E0,3.1E1,9E0,9E0,1E0,5E0],"tree_param":{"num_deleted":"0","num_feature":"64","num_nodes":"83","size_leaf_vector":"1"}},{"base_weights":[1.2117124E3,-2.0820596E3,4.109716E4,-1.2515725E4,5.761907E3,2.433023E4,1.30134586E5,-9.925606E3,-3.7852586E4,-1.0075162E4,1.4111085E4,3.6756285E4,-3.0296668E4,8.1452055E4,1.15808664E5,-3.0002543E4,-5.7026885E3,-4.2279457E4,5.685818E4,-3.2937348E4,-5.2813267E3,8.866653E4,1.1895257E4,2.3182344E4,1.094533E5,-8.041308E4,-1.9323514E4,-5.5940676E4,1.1479802E5,-3.2394613E4,2.6105154E4,-1.5812135E4,2.0723374E3,-3.456918E4,-7.7822984E4,1.7857824E4,-1.2005531E3,-2.884854E4,-2.1914836E4,-1.3969369E4,6.233086E3,1.4437316E5,-7.68272E3,3.3446785E4,2.9982888E3,-4.2492637E4,3.3097332E4,4.9104652E4,7.133664E4,-1.8288402E4,-7.650389E3,1.967125E2,-5.4264797E4,-2.4321525E4,-4.1079473E3,1.6366278E5,4.6505348E4,-7.3105894E3,1.8873743E3,-5.1602617E3,1.6623231E3,3.752334E3,-1.2213362E3,-7.763683E3,2.0784773E3,-1.9925023E4,-8.535116E3,-3.7963142E3,-1.3129644E4,-1.8623037E3,-1.229591E4,9.169948E2,1.4811319E4,2.0060748E4,3.3600617E4,2.4146777E4,-1.1707437E4,2.4062146E4,2.3720903E3,4.909595E1,1.4025624E4,-2.8536998E4,9.682387E3,-8.214679E3,8.654294E3,2.6497E2,1.6065536E4,2.4737546E3,-1.00517E4,-3.1594512E3,-1.7461172E4,1.0163586E4,4.34524E4,-3.51311E3,1.2522824E4],"categories":[],"categories_nodes":[],"categories_segments":[],"categories_sizes":[],"default_left":[0,0,0,0,0,0,0,0,0,0,0,0,0,0,0,0,0,0,0,0,0,0,0,0,0,0,0,0,0,0,0,0,0,0,0,0,0,0,0,0,0,0,0,0,0,0,0,0,0,0,0,0,0,0,0,0,0,0,0,0,0,0,0,0,0,0,0,0,0,0,0,0,0,0,0,0,0,0,0,0,0,0,0,0,0,0,0,0,0,0,0,0,0,0,0],"id":16,"left_children":[1,3,5,7,9,11,13,15,17,19,21,23,25,27,-1,29,31,33,35,37,39,41,43,45,47,49,51,53,55,57,-1,59,61,63,65,-1,-1,67,-1,69,71,73,75,77,79,81,83,-1,85,-1,-1,87,89,-1,-1,91,93,-1,-1,-1,-1,-1,-1,-1,-1,-1,-1,-1,-1,-1,-1,-1,-1,-1,-1,-1,-1,-1,-1,-1,-1,-1,-1,-1,-1,-1,-1,-1,-1,-1,-1,-1,-1,-1,-1],"loss_changes":[6.871693E11,3.955294E11,5.9249466E11,1.3573154E11,3.6495517E11,2.2986804E11,1.3296387E12,1.5947578E11,8.290425E10,1.0427252E11,2.9746535E11,2.6882844E11,3.3092047E10,2.7214856E11,0E0,1.2979477E11,1.2241483E11,4.773498E10,1.888374E10,4.854227E10,7.901682E10,2.8020838E11,3.366009E11,1.531282E11,2.0550602E11,1.6170844E9,3.6159947E10,2.5398272E10,1.4923275E11,5.6530534E10,0E0,1.6335544E11,1.2037315E11,2.9634413E10,2.0269679E10,0E0,0E0,5.6123875E10,0E0,9.901043E10,3.76659E10,1.7513513E10,1.3767855E11,9.60486E11,2.2986852E11,2.8925385E11,1.549658E11,0E0,2.192533E10,0E0,0E0,2.2116676E10,2.2769971E10,0E0,0E0,1.5226582E11,2.2774022E10,0E0,0E0,0E0,0E0,0E0,0E0,0E0,0E0,0E0,0E0,0E0,0E0,0E0,0E0,0E0,0E0,0E0,0E0,0E0,0E0,0E0,0E0,0E0,0E0,0E0,0E0,0E0,0E0,0E0,0E0,0E0,0E0,0E0,0E0,0E0,0E0,0E0,0E0],"parents":[2147483647,0,0,1,1,2,2,3,3,4,4,5,5,6,6,7,7,8,8,9,9,10,10,11,11,12,12,13,13,15,15,16,16,17,17,18,18,19,19,20,20,21,21,22,22,23,23,24,24,25,25,26,26,27,27,28,28,29,29,31,31,32,32,33,33,34,34,37,37,39,39,40,40,41,41,42,42,43,43,44,44,45,45,46,46,48,48,51,51,52,52,55,55,56,56],"right_children":[2,4,6,8,10,12,14,16,18,20,22,24,26,28,-1,30,32,34,36,38,40,42,44,46,48,50,52,54,56,58,-1,60,62,64,66,-1,-1,68,-1,70,72,74,76,78,80,82,84,-1,86,-1,-1,88,90,-1,-1,92,94,-1,-1,-1,-1,-1,-1,-1,-1,-1,-1,-1,-1,-1,-1,-1,-1,-1,-1,-1,-1,-1,-1,-1,-1,-1,-1,-1,-1,-1,-1,-1,-1,-1,-1,-1,-1,-1,-1],"split_conditions":[6.888753E5,-7.611241E-2,1E0,1.1E1,2.94E5,1E0,8.1395346E-1,-8.7236536E-1,1E0,1.2E5,1E0,5E0,-1.3232344E-1,1E0,1.15808664E5,1.2839056E0,1E0,-1.6861826E-1,-1.0697675E0,1.3185011E0,2.3255814E-2,2.2E1,-3.0232558E-1,-1.6511627E0,-1.27041E-1,-1.3953489E-1,4.5392078E-1,-9.3023255E-2,1E0,1E0,2.6105154E4,4.6511628E-2,-3.7209302E-1,3E0,1E0,1.7857824E4,-1.2005531E3,1.7487122E-2,-2.1914836E4,1.5632318E0,3E0,7.1545666E-1,-6.84136E-1,-1.97684E-1,4E0,1E0,-1.0245901E0,4.9104652E4,2E0,-1.8288402E4,-7.650389E3,4.883721E-1,1E0,-2.4321525E4,-4.1079473E3,4E0,-6.2880564E-1,-7.3105894E3,1.8873743E3,-5.1602617E3,1.6623231E3,3.752334E3,-1.2213362E3,-7.763683E3,2.0784773E3,-1.9925023E4,-8.535116E3,-3.7963142E3,-1.3129644E4,-1.8623037E3,-1.229591E4,9.169948E2,1.4811319E4,2.0060748E4,3.3600617E4,2.4146777E4,-1.1707437E4,2.4062146E4,2.3720903E3,4.909595E1,1.4025624E4,-2.8536998E4,9.682387E3,-8.214679E3,8.654294E3,2.6497E2,1.6065536E4,2.4737546E3,-1.00517E4,-3.1594512E3,-1.7461172E4,1.0163586E4,4.34524E4,-3.51311E3,1.2522824E4],"split_indices":[63,6,36,12,63,32,2,6,23,63,8,11,19,21,0,19,25,6,2,6,2,17,2,2,19,2,19,2,29,22,0,2,2,10,59,0,0,19,0,6,10,6,19,19,9,45,6,0,10,0,0,2,40,0,0,16,6,0,0,0,0,0,0,0,0,0,0,0,0,0,0,0,0,0,0,0,0,0,0,0,0,0,0,0,0,0,0,0,0,0,0,0,0,0,0],"split_type":[0,0,0,0,0,0,0,0,0,0,0,0,0,0,0,0,0,0,0,0,0,0,0,0,0,0,0,0,0,0,0,0,0,0,0,0,0,0,0,0,0,0,0,0,0,0,0,0,0,0,0,0,0,0,0,0,0,0,0,0,0,0,0,0,0,0,0,0,0,0,0,0,0,0,0,0,0,0,0,0,0,0,0,0,0,0,0,0,0,0,0,0,0,0,0],"sum_hessian":[5.229E3,4.831E3,3.98E2,2.073E3,2.758E3,3.36E2,6.2E1,1.882E3,1.91E2,9.52E2,1.806E3,2.74E2,6.2E1,5.7E1,5E0,3.26E2,1.556E3,1.83E2,8E0,1.64E2,7.88E2,5.1E1,1.755E3,2.32E2,4.2E1,1E1,5.2E1,1.1E1,4.6E1,3.22E2,4E0,6.76E2,8.8E2,1.52E2,3.1E1,5E0,3E0,1.57E2,7E0,4.49E2,3.39E2,3.2E1,1.9E1,5.12E2,1.243E3,3E1,2.02E2,8E0,3.4E1,7E0,3E0,3.4E1,1.8E1,3E0,8E0,2.6E1,2E1,2.93E2,2.9E1,4.78E2,1.98E2,2.89E2,5.91E2,1.39E2,1.3E1,1.8E1,1.3E1,1.25E2,3.2E1,4.1E2,3.9E1,3.32E2,7E0,1.3E1,1.9E1,5E0,1.4E1,1.01E2,4.11E2,1.195E3,4.8E1,1.4E1,1.6E1,2.4E1,1.78E2,4E0,3E1,2.8E1,6E0,9E0,9E0,9E0,1.7E1,4E0,1.6E1],"tree_param":{"num_deleted":"0","num_feature":"64","num_nodes":"95","size_leaf_vector":"1"}},{"base_weights":[1.01037384E3,-1.3347535E3,4.6209242E4,-3.3848164E3,2.848502E4,2.3795262E4,1.5468189E5,-1.534749E4,1.3660845E3,2.195474E4,1.204183E5,1.1462399E4,1.1300483E5,6.969894E4,3.7549484E5,-8.95595E4,-1.2664313E4,4.483862E4,-7.402811E2,1.6916756E4,3.0555691E4,4.7044754E4,4.26045E4,7.673761E4,-6.4559062E3,7.826167E4,5.690535E4,8.300857E4,-4.0291875E3,8.640365E4,3.0888713E4,-1.15433305E5,1.5129533E4,-1.5650369E4,2.1916588E4,3.4513285E4,3.282913E4,1.3391013E4,-8.1098364E3,8.1471167E3,5.988279E4,4.878225E3,1.0280347E4,2.0327888E5,2.3563182E4,-4.0944812E4,1.6354976E4,4.0011492E4,2.4797154E4,2.1511557E4,3.529091E4,-1.2920013E4,4.201E3,-1.8337945E4,-3.4074402E4,4.779779E3,3.1607877E2,2.6010286E3,-3.7292798E3,5.7660464E3,-2.3594826E4,2.3532908E3,1.6757871E4,1.7334512E3,1.754954E4,-3.4637146E3,9.902918E2,-3.310561E3,4.6284243E3,1.8374217E4,1.7812434E3,6.029171E3,4.697818E4,1.211208E4,-5.895258E3,-1.7309945E4,-3.195723E3,3.1865828E4,1.237972E3,4.4421445E3,1.20088125E4,9.179733E3,1.0505344E3],"categories":[],"categories_nodes":[],"categories_segments":[],"categories_sizes":[],"default_left":[0,0,0,0,0,0,0,0,0,0,0,0,0,0,0,0,0,0,0,0,0,0,0,0,0,0,0,0,0,0,0,0,0,0,0,0,0,0,0,0,0,0,0,0,0,0,0,0,0,0,0,0,0,0,0,0,0,0,0,0,0,0,0,0,0,0,0,0,0,0,0,0,0,0,0,0,0,0,0,0,0,0,0],"id":17,"left_children":[1,3,5,7,9,11,13,15,17,19,21,23,25,27,29,31,33,35,37,39,-1,41,-1,43,45,47,-1,49,51,-1,-1,53,55,57,59,61,-1,63,65,67,69,-1,-1,71,73,75,77,79,-1,-1,81,-1,-1,-1,-1,-1,-1,-1,-1,-1,-1,-1,-1,-1,-1,-1,-1,-1,-1,-1,-1,-1,-1,-1,-1,-1,-1,-1,-1,-1,-1,-1,-1],"loss_changes":[5.5442656E11,3.0410788E11,6.235957E11,2.6452396E11,1.8946825E11,2.3524966E11,7.9950316E11,2.6230679E11,3.0514132E11,1.9514184E11,1.3266708E11,2.2272344E11,1.32672E11,3.271716E10,8.321237E10,1.26346854E11,1.3230989E11,1.8404508E11,3.31174E11,1.0878315E11,0E0,2.9372416E7,0E0,2.7108924E11,1.1867801E11,3.5265085E10,0E0,2.9004251E10,1.0454981E10,0E0,0E0,3.2642957E10,1.1504033E9,1.012912E11,1.0205099E11,1.5929913E11,0E0,3.8209428E11,2.514668E11,9.001391E10,7.908378E10,0E0,0E0,5.8595967E10,6.0654486E10,6.6931917E10,1.3126854E11,3.658709E9,0E0,0E0,3.2639314E9,0E0,0E0,0E0,0E0,0E0,0E0,0E0,0E0,0E0,0E0,0E0,0E0,0E0,0E0,0E0,0E0,0E0,0E0,0E0,0E0,0E0,0E0,0E0,0E0,0E0,0E0,0E0,0E0,0E0,0E0,0E0,0E0],"parents":[2147483647,0,0,1,1,2,2,3,3,4,4,5,5,6,6,7,7,8,8,9,9,10,10,11,11,12,12,13,13,14,14,15,15,16,16,17,17,18,18,19,19,21,21,23,23,24,24,25,25,27,27,28,28,31,31,32,32,33,33,34,34,35,35,37,37,38,38,39,39,40,40,43,43,44,44,45,45,46,46,47,47,50,50],"right_children":[2,4,6,8,10,12,14,16,18,20,22,24,26,28,30,32,34,36,38,40,-1,42,-1,44,46,48,-1,50,52,-1,-1,54,56,58,60,62,-1,64,66,68,70,-1,-1,72,74,76,78,80,-1,-1,82,-1,-1,-1,-1,-1,-1,-1,-1,-1,-1,-1,-1,-1,-1,-1,-1,-1,-1,-1,-1,-1,-1,-1,-1,-1,-1,-1,-1,-1,-1,-1,-1],"split_conditions":[1E0,1E0,4.1991857E-1,-3.31171E-1,1E0,1E0,1E0,1E0,1E0,6.9144297E-1,1E0,-1.771305E0,1E0,1E0,8.604651E-1,1E0,1E0,7.081394E-2,-2.7906978E-1,1.5939788E0,3.0555691E4,1.0232558E0,4.26045E4,9.3023255E-2,-5.993109E-1,1.1408849E0,5.690535E4,3.9534885E-1,-1.3953489E-1,8.640365E4,3.0888713E4,4.7E5,-1.6511627E0,5E0,1E0,3.6E5,3.282913E4,1E0,1E0,4E0,5.5790086E0,4.878225E3,1.0280347E4,-9.1799736E-1,1E0,-9.855965E-2,-4.510808E-1,8.8372093E-1,2.4797154E4,2.1511557E4,8.1395346E-1,-1.2920013E4,4.201E3,-1.8337945E4,-3.4074402E4,4.779779E3,3.1607877E2,2.6010286E3,-3.7292798E3,5.7660464E3,-2.3594826E4,2.3532908E3,1.6757871E4,1.7334512E3,1.754954E4,-3.4637146E3,9.902918E2,-3.310561E3,4.6284243E3,1.8374217E4,1.7812434E3,6.029171E3,4.697818E4,1.211208E4,-5.895258E3,-1.7309945E4,-3.195723E3,3.1865828E4,1.237972E3,4.4421445E3,1.20088125E4,9.179733E3,1.0505344E3],"split_indices":[60,2,18,5,44,56,45,11,1,18,45,18,0,34,2,21,36,19,2,5,0,2,0,2,18,5,0,2,2,0,0,63,2,17,53,63,0,36,42,16,5,0,0,5,30,19,18,2,0,0,2,0,0,0,0,0,0,0,0,0,0,0,0,0,0,0,0,0,0,0,0,0,0,0,0,0,0,0,0,0,0,0,0],"split_type":[0,0,0,0,0,0,0,0,0,0,0,0,0,0,0,0,0,0,0,0,0,0,0,0,0,0,0,0,0,0,0,0,0,0,0,0,0,0,0,0,0,0,0,0,0,0,0,0,0,0,0,0,0,0,0,0,0,0,0,0,0,0,0,0,0,0,0,0,0,0,0,0,0,0,0,0,0,0,0,0,0,0,0],"sum_hessian":[5.229E3,4.972E3,2.57E2,4.653E3,3.19E2,2.14E2,4.3E1,1.322E3,3.331E3,2.99E2,2E1,1.89E2,2.5E1,3.2E1,1.1E1,4.5E1,1.277E3,1.53E2,3.178E3,2.89E2,1E1,1.2E1,8E0,4E1,1.49E2,2.2E1,3E0,2.7E1,5E0,8E0,3E0,3.6E1,9E0,1.176E3,1.01E2,1.42E2,1.1E1,1.089E3,2.089E3,2.41E2,4.8E1,3E0,9E0,1.1E1,2.9E1,5.9E1,9E1,1.3E1,9E0,1.7E1,1E1,1E0,4E0,2.7E1,9E0,5E0,4E0,1.11E2,1.065E3,9.7E1,4E0,9.8E1,4.4E1,1.025E3,6.4E1,1.225E3,8.64E2,9.1E1,1.5E2,2.9E1,1.9E1,2E0,9E0,1.7E1,1.2E1,2E1,3.9E1,5E0,8.5E1,8E0,5E0,7E0,3E0],"tree_param":{"num_deleted":"0","num_feature":"64","num_nodes":"83","size_leaf_vector":"1"}},{"base_weights":[8.8909534E2,-8.189197E2,4.1722688E4,-2.4958748E3,3.0149426E4,-2.1973535E3,8.91433E4,-2.0794059E4,-1.7610124E2,1.8002545E4,8.72446E4,-2.5409541E4,8.671003E4,7.028369E4,2.0132203E5,1.0141723E5,-2.3310275E4,-4.0304941E3,1.0968823E4,2.6062312E4,-3.646813E4,1.5326052E5,-6.988068E4,-3.6180734E4,2.0879443E4,1.4634914E5,2.9576164E4,8.592657E4,1.9449293E4,8.21065E4,3.9479277E4,-1.573785E3,3.299812E4,-6.4187758E4,-1.9071139E4,-5.762776E3,2.6110465E4,2.5652895E4,-7.7229285E2,1.6329085E4,7.269734E4,-6.7186625E4,1.7113781E4,1.00078766E5,2.1448858E5,-1.9679447E4,2.25715E2,-1.0172422E5,-1.479898E4,3.2058248E4,1.1147967E4,1.1806441E4,3.7871094E3,9.715091E4,2.6385766E4,-2.542524E4,3.4143285E4,-1.155646E4,2.5769E4,-5.31721E3,-1.984439E4,-2.1011863E3,-6.377274E3,-1.202243E3,3.6028867E4,-2.113118E2,1.5539935E4,3.4069195E4,4.5714673E3,4.0167966E2,-1.7328074E4,-1.3747799E3,7.806333E3,6.302847E3,2.4679209E4,-1.7388213E4,-7.554414E3,1.2680947E4,1.2288425E3,2.4515365E4,8.799934E3,1.1097534E4,4.727295E4,-3.449724E4,-1.4650669E4,4.3911002E2,-2.3402021E4,1.3906667E3,3.145625E2,2.33046E3,2.0700729E4,1.3291298E3,1.0538561E4,-8.341007E3,-2.765655E3,4.269422E3,8.19318E3],"categories":[],"categories_nodes":[],"categories_segments":[],"categories_sizes":[],"default_left":[0,0,0,0,0,0,0,0,0,0,0,0,0,0,0,0,0,0,0,0,0,0,0,0,0,0,0,0,0,0,0,0,0,0,0,0,0,0,0,0,0,0,0,0,0,0,0,0,0,0,0,0,0,0,0,0,0,0,0,0,0,0,0,0,0,0,0,0,0,0,0,0,0,0,0,0,0,0,0,0,0,0,0,0,0,0,0,0,0,0,0,0,0,0,0,0,0],"id":18,"left_children":[1,3,5,7,9,11,13,15,17,19,21,23,25,27,29,31,33,35,37,39,41,43,45,47,-1,49,51,53,55,-1,57,-1,-1,59,61,63,65,67,69,71,73,75,77,79,81,-1,-1,83,85,-1,-1,-1,87,89,91,93,95,-1,-1,-1,-1,-1,-1,-1,-1,-1,-1,-1,-1,-1,-1,-1,-1,-1,-1,-1,-1,-1,-1,-1,-1,-1,-1,-1,-1,-1,-1,-1,-1,-1,-1,-1,-1,-1,-1,-1,-1],"loss_changes":[3.6479733E11,2.6082846E11,4.37566E11,2.0221691E11,1.7735965E11,2.2921411E11,1.9953071E11,1.6718946E11,1.8170901E11,9.490094E10,4.7748455E11,1.26816444E11,7.404205E10,6.830611E10,4.5782126E11,7.772286E10,8.992388E10,1.6425476E11,1.8742667E11,8.369395E10,4.7236575E10,8.2733105E10,2.84602E10,1.1341223E11,0E0,4.9615176E9,9.651805E9,4.2213114E10,1.5374594E10,0E0,8.567162E10,0E0,0E0,6.191204E10,5.213271E10,1.3839591E11,2.3974293E11,1.9147892E11,1.4463143E11,8.244404E10,6.2925046E10,7.1752745E9,5.1961375E9,1.8578407E10,3.5581395E10,0E0,0E0,2.7657929E10,1.0968981E11,0E0,0E0,0E0,4.5151384E7,2.9210313E10,5.8814705E9,5.560681E8,6.0965274E8,0E0,0E0,0E0,0E0,0E0,0E0,0E0,0E0,0E0,0E0,0E0,0E0,0E0,0E0,0E0,0E0,0E0,0E0,0E0,0E0,0E0,0E0,0E0,0E0,0E0,0E0,0E0,0E0,0E0,0E0,0E0,0E0,0E0,0E0,0E0,0E0,0E0,0E0,0E0,0E0],"parents":[2147483647,0,0,1,1,2,2,3,3,4,4,5,5,6,6,7,7,8,8,9,9,10,10,11,11,12,12,13,13,14,14,15,15,16,16,17,17,18,18,19,19,20,20,21,21,22,22,23,23,25,25,26,26,27,27,28,28,30,30,33,33,34,34,35,35,36,36,37,37,38,38,39,39,40,40,41,41,42,42,43,43,44,44,47,47,48,48,52,52,53,53,54,54,55,55,56,56],"right_children":[2,4,6,8,10,12,14,16,18,20,22,24,26,28,30,32,34,36,38,40,42,44,46,48,-1,50,52,54,56,-1,58,-1,-1,60,62,64,66,68,70,72,74,76,78,80,82,-1,-1,84,86,-1,-1,-1,88,90,92,94,96,-1,-1,-1,-1,-1,-1,-1,-1,-1,-1,-1,-1,-1,-1,-1,-1,-1,-1,-1,-1,-1,-1,-1,-1,-1,-1,-1,-1,-1,-1,-1,-1,-1,-1,-1,-1,-1,-1,-1,-1],"split_conditions":[6.7776185E-1,1E0,4E0,-7.1428573E-1,1.2903981E0,3E0,8.1395346E-1,-1.9331936E0,1E0,1E0,1.7944008E-1,1.0930233E0,1E0,6.951382E-1,8.604651E-1,-6.4554226E-1,-1.0487772E0,1E0,1.0678974E-2,1E0,-5.8050565E-2,5.456296E5,6.448769E-1,2E0,2.0879443E4,-1.5116279E0,-6.6799736E-1,7E0,-1.6511627E0,8.21065E4,1E0,-1.573785E3,3.299812E4,2E0,-2.3255815E-1,3.5687355E1,9.773557E-2,-1.6511627E0,5.183386E5,1.6501922E-2,1E0,-9.5278904E-2,8.2435596E-1,1.05788425E-1,-1.3826795E0,-1.9679447E4,2.25715E2,-1.6511627E0,4.2740047E-1,3.2058248E4,1.1147967E4,1.1806441E4,-1.6511627E0,-1.8837209E0,-5.79674E-1,-1.7674419E0,7.4418604E-1,-1.155646E4,2.5769E4,-5.31721E3,-1.984439E4,-2.1011863E3,-6.377274E3,-1.202243E3,3.6028867E4,-2.113118E2,1.5539935E4,3.4069195E4,4.5714673E3,4.0167966E2,-1.7328074E4,-1.3747799E3,7.806333E3,6.302847E3,2.4679209E4,-1.7388213E4,-7.554414E3,1.2680947E4,1.2288425E3,2.4515365E4,8.799934E3,1.1097534E4,4.727295E4,-3.449724E4,-1.4650669E4,4.3911002E2,-2.3402021E4,1.3906667E3,3.145625E2,2.33046E3,2.0700729E4,1.3291298E3,1.0538561E4,-8.341007E3,-2.765655E3,4.269422E3,8.19318E3],"split_indices":[18,44,16,6,6,10,2,18,61,35,19,2,54,18,2,5,19,15,19,37,5,63,5,11,0,2,5,11,2,0,4,0,0,8,2,6,18,2,63,18,55,19,6,5,18,0,0,2,6,0,0,0,2,2,5,2,2,0,0,0,0,0,0,0,0,0,0,0,0,0,0,0,0,0,0,0,0,0,0,0,0,0,0,0,0,0,0,0,0,0,0,0,0,0,0,0,0],"split_type":[0,0,0,0,0,0,0,0,0,0,0,0,0,0,0,0,0,0,0,0,0,0,0,0,0,0,0,0,0,0,0,0,0,0,0,0,0,0,0,0,0,0,0,0,0,0,0,0,0,0,0,0,0,0,0,0,0,0,0,0,0,0,0,0,0,0,0,0,0,0,0,0,0,0,0,0,0,0,0,0,0,0,0,0,0,0,0,0,0,0,0,0,0,0,0,0,0],"sum_hessian":[5.229E3,5.02E3,2.09E2,4.763E3,2.57E2,1.09E2,1E2,5.35E2,4.228E3,2.13E2,4.4E1,8.7E1,2.2E1,8.7E1,1.3E1,1E1,5.25E2,3.142E3,1.086E3,1.86E2,2.7E1,3.1E1,1.3E1,8.1E1,6E0,1E1,1.2E1,6.6E1,2.1E1,5E0,8E0,4E0,6E0,4.8E1,4.77E2,2.972E3,1.7E2,4.82E2,6.04E2,1.55E2,3.1E1,1.7E1,1E1,1.8E1,1.3E1,9E0,4E0,1.9E1,6.2E1,8E0,2E0,5E0,7E0,5.5E1,1.1E1,5E0,1.6E1,4E0,4E0,2.4E1,2.4E1,2.87E2,1.9E2,2.969E3,3E0,1.12E2,5.8E1,8E0,4.74E2,5.86E2,1.8E1,7.7E1,7.8E1,1.8E1,1.3E1,9E0,8E0,1E0,9E0,1.2E1,6E0,2E0,1.1E1,4E0,1.5E1,5.4E1,8E0,2E0,5E0,4E0,5.1E1,7E0,4E0,1E0,4E0,7E0,9E0],"tree_param":{"num_deleted":"0","num_feature":"64","num_nodes":"97","size_leaf_vector":"1"}},{"base_weights":[7.6985004E2,-9.958273E2,3.4800637E4,-4.3504824E3,1.0022516E4,2.1390027E4,1.441953E5,-1.1799178E4,2.9688438E3,2.936276E4,-2.3039807E3,1.3908215E4,1.3636467E5,6.964444E4,2.9384216E5,-4.0882926E4,-8.061227E3,-8.7144E3,1.0890897E4,8.454306E4,8.706577E3,-1.0527873E4,3.0665729E4,3.4350679E3,5.5246684E4,-1.449068E4,2.2713725E5,-8.597795E3,1.03790945E5,6.8422E4,2.9595975E4,-6.019281E4,1.0004157E4,-9.693257E3,3.6831742E4,-3.131542E4,-7.555422E3,4.902567E4,9.650691E3,2.395523E4,1.4985944E5,9.7949554E2,6.314919E4,-2.0317912E4,2.7879072E4,1.4459731E5,1.1890954E4,2.0143202E2,2.266768E4,-3.4485973E4,6.7635125E4,9.8661875E3,4.828246E4,-1.1457004E4,4.46682E3,1.174941E4,2.318676E4,-1.2930741E4,3.7772805E4,2.0319834E4,-8.020524E2,-2.0181028E3,3.0624535E4,2.8366536E3,1.3413268E4,-2.1242908E3,3.6822075E3,-3.1475884E3,3.0709663E3,-1.5650797E3,2.2829818E4,4.86597E4,1.5767112E4,2.7139097E3,-6.6827183E3,1.8471627E4,8.152228E3,-3.1282324E3,-1.4520682E4,-2.3400988E4,7.369103E3,2.0267822E4,3.9363445E4,-7.4155913E3,8.123522E3,4.763978E3,-3.612468E3,-1.0990283E4,-3.88052E3,2.09481E4,8.0160166E3],"categories":[],"categories_nodes":[],"categories_segments":[],"categories_sizes":[],"default_left":[0,0,0,0,0,0,0,0,0,0,0,0,0,0,0,0,0,0,0,0,0,0,0,0,0,0,0,0,0,0,0,0,0,0,0,0,0,0,0,0,0,0,0,0,0,0,0,0,0,0,0,0,0,0,0,0,0,0,0,0,0,0,0,0,0,0,0,0,0,0,0,0,0,0,0,0,0,0,0,0,0,0,0,0,0,0,0,0,0,0,0],"id":19,"left_children":[1,3,5,7,9,11,13,15,17,19,21,23,25,27,29,31,33,35,37,39,41,43,45,47,49,-1,51,53,55,-1,-1,57,59,61,63,-1,65,-1,67,69,71,73,75,77,79,81,83,85,-1,87,89,-1,-1,-1,-1,-1,-1,-1,-1,-1,-1,-1,-1,-1,-1,-1,-1,-1,-1,-1,-1,-1,-1,-1,-1,-1,-1,-1,-1,-1,-1,-1,-1,-1,-1,-1,-1,-1,-1,-1,-1],"loss_changes":[3.142917E11,1.8385931E11,3.7541426E11,2.0791761E11,2.7684707E11,1.9681396E11,2.9191196E11,2.0513915E11,1.781713E11,5.1446002E11,1.9283178E11,9.419199E10,2.818262E11,5.4326362E10,1.2738757E10,2.1186632E11,1.2315191E11,1.3214263E11,3.3084103E11,4.831675E11,1.3876339E11,2.1451355E11,3.0202423E11,6.216996E10,5.124495E10,0E0,1.3472858E10,1.1821325E10,8.46676E8,0E0,0E0,1.8552927E11,7.742648E10,1.06197025E11,3.945005E10,0E0,6.173717E10,0E0,1.6562645E11,1.8721038E11,3.7236716E11,1.2602652E11,2.3046537E10,1.098793E11,1.5500607E11,2.523349E10,1.745317E11,7.419317E10,0E0,7.859272E8,3.5677176E10,0E0,0E0,0E0,0E0,0E0,0E0,0E0,0E0,0E0,0E0,0E0,0E0,0E0,0E0,0E0,0E0,0E0,0E0,0E0,0E0,0E0,0E0,0E0,0E0,0E0,0E0,0E0,0E0,0E0,0E0,0E0,0E0,0E0,0E0,0E0,0E0,0E0,0E0,0E0,0E0],"parents":[2147483647,0,0,1,1,2,2,3,3,4,4,5,5,6,6,7,7,8,8,9,9,10,10,11,11,12,12,13,13,14,14,15,15,16,16,17,17,18,18,19,19,20,20,21,21,22,22,23,23,24,24,26,26,27,27,28,28,31,31,32,32,33,33,34,34,36,36,38,38,39,39,40,40,41,41,42,42,43,43,44,44,45,45,46,46,47,47,49,49,50,50],"right_children":[2,4,6,8,10,12,14,16,18,20,22,24,26,28,30,32,34,36,38,40,42,44,46,48,50,-1,52,54,56,-1,-1,58,60,62,64,-1,66,-1,68,70,72,74,76,78,80,82,84,86,-1,88,90,-1,-1,-1,-1,-1,-1,-1,-1,-1,-1,-1,-1,-1,-1,-1,-1,-1,-1,-1,-1,-1,-1,-1,-1,-1,-1,-1,-1,-1,-1,-1,-1,-1,-1,-1,-1,-1,-1,-1,-1],"split_conditions":[1E0,5.236924E5,2.055035E0,1E0,-2.3255815E-1,1E0,3.139489E-1,-8.68954E-1,-5.8050565E-2,-1.27041E-1,-6.338247E-4,4.1843897E-1,-1.1102242E0,1.1408849E0,1E0,1.627907E-1,1E0,1E0,-1.9347543E0,-1.1943794E-1,4E0,7.969062E-1,-1.022302E0,1.2969395E1,-6.2880564E-1,-1.449068E4,-3.488372E-1,4.1860464E-1,6.744186E-1,6.8422E4,2.9595975E4,4.593646E1,1E0,3.5687355E1,3.0327868E-1,-3.131542E4,8.604651E-1,4.902567E4,1.85E5,-2.0418759E-1,-5.116279E-1,5.4566747E-1,2.5421546E0,2.4E1,1E0,1E0,9.773557E-2,3E0,2.266768E4,-1.3953489E-1,1.5E1,9.8661875E3,4.828246E4,-1.1457004E4,4.46682E3,1.174941E4,2.318676E4,-1.2930741E4,3.7772805E4,2.0319834E4,-8.020524E2,-2.0181028E3,3.0624535E4,2.8366536E3,1.3413268E4,-2.1242908E3,3.6822075E3,-3.1475884E3,3.0709663E3,-1.5650797E3,2.2829818E4,4.86597E4,1.5767112E4,2.7139097E3,-6.6827183E3,1.8471627E4,8.152228E3,-3.1282324E3,-1.4520682E4,-2.3400988E4,7.369103E3,2.0267822E4,3.9363445E4,-7.4155913E3,8.123522E3,4.763978E3,-3.612468E3,-1.0990283E4,-3.88052E3,2.09481E4,8.0160166E3],"split_indices":[60,63,6,25,2,31,18,19,5,19,19,18,19,5,0,2,2,7,18,6,7,5,18,5,6,0,2,2,2,0,0,5,8,6,6,0,2,0,63,19,2,6,6,17,7,8,18,7,0,2,17,0,0,0,0,0,0,0,0,0,0,0,0,0,0,0,0,0,0,0,0,0,0,0,0,0,0,0,0,0,0,0,0,0,0,0,0,0,0,0,0],"split_type":[0,0,0,0,0,0,0,0,0,0,0,0,0,0,0,0,0,0,0,0,0,0,0,0,0,0,0,0,0,0,0,0,0,0,0,0,0,0,0,0,0,0,0,0,0,0,0,0,0,0,0,0,0,0,0,0,0,0,0,0,0,0,0,0,0,0,0,0,0,0,0,0,0,0,0,0,0,0,0,0,0,0,0,0,0,0,0,0,0,0,0],"sum_hessian":[5.229E3,4.972E3,2.57E2,3.812E3,1.16E3,2.3E2,2.7E1,1.889E3,1.923E3,4.51E2,7.09E2,2.17E2,1.3E1,1.9E1,8E0,2.14E2,1.675E3,7.77E2,1.146E3,1.22E2,3.29E2,5.68E2,1.41E2,1.74E2,4.3E1,4E0,9E0,6E0,1.3E1,